digraph Tree {
node [shape=box, style="filled, rounded", color="black", fontname="helvetica"] ;
edge [fontname="helvetica"] ;
0 [label=<Humidity3pm &le; 0.715<br/>gini = 0.349<br/>samples = 98988<br/>value = [76705, 22283]<br/>class = No>, fillcolor="#eda673"] ;
1 [label=<Rainfall &le; 0.004<br/>gini = 0.248<br/>samples = 82418<br/>value = [70439.0, 11979.0]<br/>class = No>, fillcolor="#e9965b"] ;
0 -> 1 [labeldistance=2.5, labelangle=45, headlabel="True"] ;
2 [label=<Sunshine &le; 0.525<br/>gini = 0.198<br/>samples = 69252<br/>value = [61538.0, 7714.0]<br/>class = No>, fillcolor="#e89152"] ;
1 -> 2 ;
3 [label=<Pressure3pm &le; 0.583<br/>gini = 0.363<br/>samples = 12620<br/>value = [9618, 3002]<br/>class = No>, fillcolor="#eda877"] ;
2 -> 3 ;
4 [label=<WindGustSpeed &le; 0.364<br/>gini = 0.469<br/>samples = 4691<br/>value = [2932, 1759]<br/>class = No>, fillcolor="#f5cdb0"] ;
3 -> 4 ;
5 [label=<Humidity3pm &le; 0.275<br/>gini = 0.435<br/>samples = 3251<br/>value = [2210, 1041]<br/>class = No>, fillcolor="#f1bc96"] ;
4 -> 5 ;
6 [label=<Cloud9am &le; 0.611<br/>gini = 0.161<br/>samples = 272<br/>value = [248, 24]<br/>class = No>, fillcolor="#e88d4c"] ;
5 -> 6 ;
7 [label=<WindSpeed3pm &le; 0.075<br/>gini = 0.252<br/>samples = 115<br/>value = [98, 17]<br/>class = No>, fillcolor="#ea975b"] ;
6 -> 7 ;
8 [label=<Sunshine &le; 0.41<br/>gini = 0.444<br/>samples = 3<br/>value = [1, 2]<br/>class = Yes>, fillcolor="#9ccef2"] ;
7 -> 8 ;
9 [label=<gini = 0.0<br/>samples = 2<br/>value = [0, 2]<br/>class = Yes>, fillcolor="#399de5"] ;
8 -> 9 ;
10 [label=<gini = 0.0<br/>samples = 1<br/>value = [1, 0]<br/>class = No>, fillcolor="#e58139"] ;
8 -> 10 ;
11 [label=<MinTemp &le; 0.335<br/>gini = 0.232<br/>samples = 112<br/>value = [97, 15]<br/>class = No>, fillcolor="#e99458"] ;
7 -> 11 ;
12 [label=<gini = 0.0<br/>samples = 1<br/>value = [0, 1]<br/>class = Yes>, fillcolor="#399de5"] ;
11 -> 12 ;
13 [label=<Pressure3pm &le; 0.582<br/>gini = 0.22<br/>samples = 111<br/>value = [97.0, 14.0]<br/>class = No>, fillcolor="#e99356"] ;
11 -> 13 ;
14 [label=<Pressure3pm &le; 0.511<br/>gini = 0.208<br/>samples = 110<br/>value = [97, 13]<br/>class = No>, fillcolor="#e89254"] ;
13 -> 14 ;
15 [label=<MaxTemp &le; 0.723<br/>gini = 0.324<br/>samples = 54<br/>value = [43, 11]<br/>class = No>, fillcolor="#eca16c"] ;
14 -> 15 ;
16 [label=<MaxTemp &le; 0.695<br/>gini = 0.483<br/>samples = 22<br/>value = [13, 9]<br/>class = No>, fillcolor="#f7d8c2"] ;
15 -> 16 ;
17 [label=<Evaporation &le; 0.056<br/>gini = 0.36<br/>samples = 17<br/>value = [13, 4]<br/>class = No>, fillcolor="#eda876"] ;
16 -> 17 ;
18 [label=<Pressure9am &le; 0.548<br/>gini = 0.142<br/>samples = 13<br/>value = [12, 1]<br/>class = No>, fillcolor="#e78c49"] ;
17 -> 18 ;
19 [label=<gini = 0.0<br/>samples = 12<br/>value = [12, 0]<br/>class = No>, fillcolor="#e58139"] ;
18 -> 19 ;
20 [label=<gini = 0.0<br/>samples = 1<br/>value = [0, 1]<br/>class = Yes>, fillcolor="#399de5"] ;
18 -> 20 ;
21 [label=<Temp9am &le; 0.558<br/>gini = 0.375<br/>samples = 4<br/>value = [1, 3]<br/>class = Yes>, fillcolor="#7bbeee"] ;
17 -> 21 ;
22 [label=<gini = 0.0<br/>samples = 1<br/>value = [1, 0]<br/>class = No>, fillcolor="#e58139"] ;
21 -> 22 ;
23 [label=<gini = 0.0<br/>samples = 3<br/>value = [0, 3]<br/>class = Yes>, fillcolor="#399de5"] ;
21 -> 23 ;
24 [label=<gini = 0.0<br/>samples = 5<br/>value = [0, 5]<br/>class = Yes>, fillcolor="#399de5"] ;
16 -> 24 ;
25 [label=<WindGustDir &le; 0.5<br/>gini = 0.117<br/>samples = 32<br/>value = [30, 2]<br/>class = No>, fillcolor="#e78946"] ;
15 -> 25 ;
26 [label=<gini = 0.0<br/>samples = 1<br/>value = [0, 1]<br/>class = Yes>, fillcolor="#399de5"] ;
25 -> 26 ;
27 [label=<Humidity3pm &le; 0.225<br/>gini = 0.062<br/>samples = 31<br/>value = [30, 1]<br/>class = No>, fillcolor="#e68540"] ;
25 -> 27 ;
28 [label=<gini = 0.0<br/>samples = 26<br/>value = [26, 0]<br/>class = No>, fillcolor="#e58139"] ;
27 -> 28 ;
29 [label=<Evaporation &le; 0.073<br/>gini = 0.32<br/>samples = 5<br/>value = [4, 1]<br/>class = No>, fillcolor="#eca06a"] ;
27 -> 29 ;
30 [label=<gini = 0.0<br/>samples = 1<br/>value = [0, 1]<br/>class = Yes>, fillcolor="#399de5"] ;
29 -> 30 ;
31 [label=<gini = 0.0<br/>samples = 4<br/>value = [4, 0]<br/>class = No>, fillcolor="#e58139"] ;
29 -> 31 ;
32 [label=<Pressure3pm &le; 0.578<br/>gini = 0.069<br/>samples = 56<br/>value = [54, 2]<br/>class = No>, fillcolor="#e68640"] ;
14 -> 32 ;
33 [label=<gini = 0.0<br/>samples = 49<br/>value = [49, 0]<br/>class = No>, fillcolor="#e58139"] ;
32 -> 33 ;
34 [label=<WindDir9am &le; 4.0<br/>gini = 0.408<br/>samples = 7<br/>value = [5, 2]<br/>class = No>, fillcolor="#efb388"] ;
32 -> 34 ;
35 [label=<Sunshine &le; 0.486<br/>gini = 0.444<br/>samples = 3<br/>value = [1, 2]<br/>class = Yes>, fillcolor="#9ccef2"] ;
34 -> 35 ;
36 [label=<gini = 0.0<br/>samples = 2<br/>value = [0, 2]<br/>class = Yes>, fillcolor="#399de5"] ;
35 -> 36 ;
37 [label=<gini = 0.0<br/>samples = 1<br/>value = [1, 0]<br/>class = No>, fillcolor="#e58139"] ;
35 -> 37 ;
38 [label=<gini = 0.0<br/>samples = 4<br/>value = [4, 0]<br/>class = No>, fillcolor="#e58139"] ;
34 -> 38 ;
39 [label=<gini = 0.0<br/>samples = 1<br/>value = [0, 1]<br/>class = Yes>, fillcolor="#399de5"] ;
13 -> 39 ;
40 [label=<Temp9am &le; 0.495<br/>gini = 0.085<br/>samples = 157<br/>value = [150.0, 7.0]<br/>class = No>, fillcolor="#e68742"] ;
6 -> 40 ;
41 [label=<Evaporation &le; 0.046<br/>gini = 0.36<br/>samples = 17<br/>value = [13, 4]<br/>class = No>, fillcolor="#eda876"] ;
40 -> 41 ;
42 [label=<Sunshine &le; 0.234<br/>gini = 0.231<br/>samples = 15<br/>value = [13, 2]<br/>class = No>, fillcolor="#e99457"] ;
41 -> 42 ;
43 [label=<Humidity3pm &le; 0.22<br/>gini = 0.444<br/>samples = 3<br/>value = [1, 2]<br/>class = Yes>, fillcolor="#9ccef2"] ;
42 -> 43 ;
44 [label=<gini = 0.0<br/>samples = 1<br/>value = [1, 0]<br/>class = No>, fillcolor="#e58139"] ;
43 -> 44 ;
45 [label=<gini = 0.0<br/>samples = 2<br/>value = [0, 2]<br/>class = Yes>, fillcolor="#399de5"] ;
43 -> 45 ;
46 [label=<gini = 0.0<br/>samples = 12<br/>value = [12, 0]<br/>class = No>, fillcolor="#e58139"] ;
42 -> 46 ;
47 [label=<gini = 0.0<br/>samples = 2<br/>value = [0, 2]<br/>class = Yes>, fillcolor="#399de5"] ;
41 -> 47 ;
48 [label=<Cloud3pm &le; 0.167<br/>gini = 0.042<br/>samples = 140<br/>value = [137, 3]<br/>class = No>, fillcolor="#e6843d"] ;
40 -> 48 ;
49 [label=<WindGustSpeed &le; 0.283<br/>gini = 0.375<br/>samples = 4<br/>value = [3, 1]<br/>class = No>, fillcolor="#eeab7b"] ;
48 -> 49 ;
50 [label=<gini = 0.0<br/>samples = 1<br/>value = [0, 1]<br/>class = Yes>, fillcolor="#399de5"] ;
49 -> 50 ;
51 [label=<gini = 0.0<br/>samples = 3<br/>value = [3, 0]<br/>class = No>, fillcolor="#e58139"] ;
49 -> 51 ;
52 [label=<Sunshine &le; 0.19<br/>gini = 0.029<br/>samples = 136<br/>value = [134, 2]<br/>class = No>, fillcolor="#e5833c"] ;
48 -> 52 ;
53 [label=<Sunshine &le; 0.162<br/>gini = 0.188<br/>samples = 19<br/>value = [17, 2]<br/>class = No>, fillcolor="#e89050"] ;
52 -> 53 ;
54 [label=<gini = 0.0<br/>samples = 16<br/>value = [16, 0]<br/>class = No>, fillcolor="#e58139"] ;
53 -> 54 ;
55 [label=<Humidity3pm &le; 0.23<br/>gini = 0.444<br/>samples = 3<br/>value = [1, 2]<br/>class = Yes>, fillcolor="#9ccef2"] ;
53 -> 55 ;
56 [label=<gini = 0.0<br/>samples = 1<br/>value = [1, 0]<br/>class = No>, fillcolor="#e58139"] ;
55 -> 56 ;
57 [label=<gini = 0.0<br/>samples = 2<br/>value = [0, 2]<br/>class = Yes>, fillcolor="#399de5"] ;
55 -> 57 ;
58 [label=<gini = 0.0<br/>samples = 117<br/>value = [117, 0]<br/>class = No>, fillcolor="#e58139"] ;
52 -> 58 ;
59 [label=<Sunshine &le; 0.052<br/>gini = 0.45<br/>samples = 2979<br/>value = [1962.0, 1017.0]<br/>class = No>, fillcolor="#f2c2a0"] ;
5 -> 59 ;
60 [label=<WindDir3pm &le; 7.5<br/>gini = 0.498<br/>samples = 253<br/>value = [118, 135]<br/>class = Yes>, fillcolor="#e6f3fc"] ;
59 -> 60 ;
61 [label=<Location &le; 16.5<br/>gini = 0.449<br/>samples = 144<br/>value = [49, 95]<br/>class = Yes>, fillcolor="#9fd0f2"] ;
60 -> 61 ;
62 [label=<WindGustDir &le; 5.5<br/>gini = 0.499<br/>samples = 44<br/>value = [23, 21]<br/>class = No>, fillcolor="#fdf4ee"] ;
61 -> 62 ;
63 [label=<WindSpeed9am &le; 0.162<br/>gini = 0.454<br/>samples = 23<br/>value = [8, 15]<br/>class = Yes>, fillcolor="#a3d1f3"] ;
62 -> 63 ;
64 [label=<WindSpeed3pm &le; 0.138<br/>gini = 0.346<br/>samples = 18<br/>value = [4, 14]<br/>class = Yes>, fillcolor="#72b9ec"] ;
63 -> 64 ;
65 [label=<WindSpeed3pm &le; 0.092<br/>gini = 0.444<br/>samples = 6<br/>value = [4, 2]<br/>class = No>, fillcolor="#f2c09c"] ;
64 -> 65 ;
66 [label=<Pressure3pm &le; 0.502<br/>gini = 0.444<br/>samples = 3<br/>value = [1, 2]<br/>class = Yes>, fillcolor="#9ccef2"] ;
65 -> 66 ;
67 [label=<gini = 0.0<br/>samples = 1<br/>value = [1, 0]<br/>class = No>, fillcolor="#e58139"] ;
66 -> 67 ;
68 [label=<gini = 0.0<br/>samples = 2<br/>value = [0, 2]<br/>class = Yes>, fillcolor="#399de5"] ;
66 -> 68 ;
69 [label=<gini = 0.0<br/>samples = 3<br/>value = [3, 0]<br/>class = No>, fillcolor="#e58139"] ;
65 -> 69 ;
70 [label=<gini = 0.0<br/>samples = 12<br/>value = [0, 12]<br/>class = Yes>, fillcolor="#399de5"] ;
64 -> 70 ;
71 [label=<Pressure3pm &le; 0.565<br/>gini = 0.32<br/>samples = 5<br/>value = [4, 1]<br/>class = No>, fillcolor="#eca06a"] ;
63 -> 71 ;
72 [label=<gini = 0.0<br/>samples = 4<br/>value = [4, 0]<br/>class = No>, fillcolor="#e58139"] ;
71 -> 72 ;
73 [label=<gini = 0.0<br/>samples = 1<br/>value = [0, 1]<br/>class = Yes>, fillcolor="#399de5"] ;
71 -> 73 ;
74 [label=<MaxTemp &le; 0.475<br/>gini = 0.408<br/>samples = 21<br/>value = [15, 6]<br/>class = No>, fillcolor="#efb388"] ;
62 -> 74 ;
75 [label=<WindDir9am &le; 4.0<br/>gini = 0.469<br/>samples = 8<br/>value = [3, 5]<br/>class = Yes>, fillcolor="#b0d8f5"] ;
74 -> 75 ;
76 [label=<gini = 0.0<br/>samples = 5<br/>value = [0, 5]<br/>class = Yes>, fillcolor="#399de5"] ;
75 -> 76 ;
77 [label=<gini = 0.0<br/>samples = 3<br/>value = [3, 0]<br/>class = No>, fillcolor="#e58139"] ;
75 -> 77 ;
78 [label=<MaxTemp &le; 0.634<br/>gini = 0.142<br/>samples = 13<br/>value = [12, 1]<br/>class = No>, fillcolor="#e78c49"] ;
74 -> 78 ;
79 [label=<gini = 0.0<br/>samples = 11<br/>value = [11, 0]<br/>class = No>, fillcolor="#e58139"] ;
78 -> 79 ;
80 [label=<WindSpeed9am &le; 0.077<br/>gini = 0.5<br/>samples = 2<br/>value = [1, 1]<br/>class = No>, fillcolor="#ffffff"] ;
78 -> 80 ;
81 [label=<gini = 0.0<br/>samples = 1<br/>value = [0, 1]<br/>class = Yes>, fillcolor="#399de5"] ;
80 -> 81 ;
82 [label=<gini = 0.0<br/>samples = 1<br/>value = [1, 0]<br/>class = No>, fillcolor="#e58139"] ;
80 -> 82 ;
83 [label=<WindDir3pm &le; 1.5<br/>gini = 0.385<br/>samples = 100<br/>value = [26, 74]<br/>class = Yes>, fillcolor="#7fbfee"] ;
61 -> 83 ;
84 [label=<Pressure3pm &le; 0.567<br/>gini = 0.497<br/>samples = 24<br/>value = [13, 11]<br/>class = No>, fillcolor="#fbece1"] ;
83 -> 84 ;
85 [label=<Pressure9am &le; 0.52<br/>gini = 0.432<br/>samples = 19<br/>value = [13, 6]<br/>class = No>, fillcolor="#f1bb94"] ;
84 -> 85 ;
86 [label=<Humidity9am &le; 0.555<br/>gini = 0.49<br/>samples = 7<br/>value = [3, 4]<br/>class = Yes>, fillcolor="#cee6f8"] ;
85 -> 86 ;
87 [label=<gini = 0.0<br/>samples = 2<br/>value = [2, 0]<br/>class = No>, fillcolor="#e58139"] ;
86 -> 87 ;
88 [label=<MaxTemp &le; 0.419<br/>gini = 0.32<br/>samples = 5<br/>value = [1, 4]<br/>class = Yes>, fillcolor="#6ab6ec"] ;
86 -> 88 ;
89 [label=<gini = 0.0<br/>samples = 1<br/>value = [1, 0]<br/>class = No>, fillcolor="#e58139"] ;
88 -> 89 ;
90 [label=<gini = 0.0<br/>samples = 4<br/>value = [0, 4]<br/>class = Yes>, fillcolor="#399de5"] ;
88 -> 90 ;
91 [label=<Evaporation &le; 0.014<br/>gini = 0.278<br/>samples = 12<br/>value = [10, 2]<br/>class = No>, fillcolor="#ea9a61"] ;
85 -> 91 ;
92 [label=<gini = 0.0<br/>samples = 1<br/>value = [0, 1]<br/>class = Yes>, fillcolor="#399de5"] ;
91 -> 92 ;
93 [label=<Pressure9am &le; 0.616<br/>gini = 0.165<br/>samples = 11<br/>value = [10, 1]<br/>class = No>, fillcolor="#e88e4d"] ;
91 -> 93 ;
94 [label=<gini = 0.0<br/>samples = 10<br/>value = [10, 0]<br/>class = No>, fillcolor="#e58139"] ;
93 -> 94 ;
95 [label=<gini = 0.0<br/>samples = 1<br/>value = [0, 1]<br/>class = Yes>, fillcolor="#399de5"] ;
93 -> 95 ;
96 [label=<gini = 0.0<br/>samples = 5<br/>value = [0, 5]<br/>class = Yes>, fillcolor="#399de5"] ;
84 -> 96 ;
97 [label=<Pressure9am &le; 0.566<br/>gini = 0.284<br/>samples = 76<br/>value = [13, 63]<br/>class = Yes>, fillcolor="#62b1ea"] ;
83 -> 97 ;
98 [label=<Pressure3pm &le; 0.526<br/>gini = 0.375<br/>samples = 48<br/>value = [12, 36]<br/>class = Yes>, fillcolor="#7bbeee"] ;
97 -> 98 ;
99 [label=<WindDir9am &le; 8.5<br/>gini = 0.231<br/>samples = 30<br/>value = [4, 26]<br/>class = Yes>, fillcolor="#57ace9"] ;
98 -> 99 ;
100 [label=<Pressure9am &le; 0.444<br/>gini = 0.133<br/>samples = 28<br/>value = [2, 26]<br/>class = Yes>, fillcolor="#48a5e7"] ;
99 -> 100 ;
101 [label=<Sunshine &le; 0.007<br/>gini = 0.375<br/>samples = 8<br/>value = [2, 6]<br/>class = Yes>, fillcolor="#7bbeee"] ;
100 -> 101 ;
102 [label=<gini = 0.0<br/>samples = 2<br/>value = [2, 0]<br/>class = No>, fillcolor="#e58139"] ;
101 -> 102 ;
103 [label=<gini = 0.0<br/>samples = 6<br/>value = [0, 6]<br/>class = Yes>, fillcolor="#399de5"] ;
101 -> 103 ;
104 [label=<gini = 0.0<br/>samples = 20<br/>value = [0, 20]<br/>class = Yes>, fillcolor="#399de5"] ;
100 -> 104 ;
105 [label=<gini = 0.0<br/>samples = 2<br/>value = [2, 0]<br/>class = No>, fillcolor="#e58139"] ;
99 -> 105 ;
106 [label=<Humidity3pm &le; 0.535<br/>gini = 0.494<br/>samples = 18<br/>value = [8, 10]<br/>class = Yes>, fillcolor="#d7ebfa"] ;
98 -> 106 ;
107 [label=<Humidity9am &le; 0.385<br/>gini = 0.463<br/>samples = 11<br/>value = [7, 4]<br/>class = No>, fillcolor="#f4c9aa"] ;
106 -> 107 ;
108 [label=<gini = 0.0<br/>samples = 3<br/>value = [0, 3]<br/>class = Yes>, fillcolor="#399de5"] ;
107 -> 108 ;
109 [label=<Pressure9am &le; 0.513<br/>gini = 0.219<br/>samples = 8<br/>value = [7, 1]<br/>class = No>, fillcolor="#e99355"] ;
107 -> 109 ;
110 [label=<gini = 0.0<br/>samples = 1<br/>value = [0, 1]<br/>class = Yes>, fillcolor="#399de5"] ;
109 -> 110 ;
111 [label=<gini = 0.0<br/>samples = 7<br/>value = [7, 0]<br/>class = No>, fillcolor="#e58139"] ;
109 -> 111 ;
112 [label=<WindGustSpeed &le; 0.19<br/>gini = 0.245<br/>samples = 7<br/>value = [1, 6]<br/>class = Yes>, fillcolor="#5aade9"] ;
106 -> 112 ;
113 [label=<gini = 0.0<br/>samples = 1<br/>value = [1, 0]<br/>class = No>, fillcolor="#e58139"] ;
112 -> 113 ;
114 [label=<gini = 0.0<br/>samples = 6<br/>value = [0, 6]<br/>class = Yes>, fillcolor="#399de5"] ;
112 -> 114 ;
115 [label=<WindGustDir &le; 1.5<br/>gini = 0.069<br/>samples = 28<br/>value = [1, 27]<br/>class = Yes>, fillcolor="#40a1e6"] ;
97 -> 115 ;
116 [label=<gini = 0.0<br/>samples = 1<br/>value = [1, 0]<br/>class = No>, fillcolor="#e58139"] ;
115 -> 116 ;
117 [label=<gini = 0.0<br/>samples = 27<br/>value = [0, 27]<br/>class = Yes>, fillcolor="#399de5"] ;
115 -> 117 ;
118 [label=<Evaporation &le; 0.059<br/>gini = 0.465<br/>samples = 109<br/>value = [69, 40]<br/>class = No>, fillcolor="#f4caac"] ;
60 -> 118 ;
119 [label=<Sunshine &le; 0.038<br/>gini = 0.408<br/>samples = 84<br/>value = [60, 24]<br/>class = No>, fillcolor="#efb388"] ;
118 -> 119 ;
120 [label=<Rainfall &le; 0.0<br/>gini = 0.351<br/>samples = 75<br/>value = [58, 17]<br/>class = No>, fillcolor="#eda673"] ;
119 -> 120 ;
121 [label=<MinTemp &le; 0.505<br/>gini = 0.177<br/>samples = 51<br/>value = [46, 5]<br/>class = No>, fillcolor="#e88f4f"] ;
120 -> 121 ;
122 [label=<MaxTemp &le; 0.409<br/>gini = 0.463<br/>samples = 11<br/>value = [7, 4]<br/>class = No>, fillcolor="#f4c9aa"] ;
121 -> 122 ;
123 [label=<gini = 0.0<br/>samples = 6<br/>value = [6, 0]<br/>class = No>, fillcolor="#e58139"] ;
122 -> 123 ;
124 [label=<MaxTemp &le; 0.485<br/>gini = 0.32<br/>samples = 5<br/>value = [1, 4]<br/>class = Yes>, fillcolor="#6ab6ec"] ;
122 -> 124 ;
125 [label=<gini = 0.0<br/>samples = 4<br/>value = [0, 4]<br/>class = Yes>, fillcolor="#399de5"] ;
124 -> 125 ;
126 [label=<gini = 0.0<br/>samples = 1<br/>value = [1, 0]<br/>class = No>, fillcolor="#e58139"] ;
124 -> 126 ;
127 [label=<WindGustSpeed &le; 0.302<br/>gini = 0.049<br/>samples = 40<br/>value = [39, 1]<br/>class = No>, fillcolor="#e6843e"] ;
121 -> 127 ;
128 [label=<gini = 0.0<br/>samples = 37<br/>value = [37, 0]<br/>class = No>, fillcolor="#e58139"] ;
127 -> 128 ;
129 [label=<Temp9am &le; 0.595<br/>gini = 0.444<br/>samples = 3<br/>value = [2, 1]<br/>class = No>, fillcolor="#f2c09c"] ;
127 -> 129 ;
130 [label=<gini = 0.0<br/>samples = 2<br/>value = [2, 0]<br/>class = No>, fillcolor="#e58139"] ;
129 -> 130 ;
131 [label=<gini = 0.0<br/>samples = 1<br/>value = [0, 1]<br/>class = Yes>, fillcolor="#399de5"] ;
129 -> 131 ;
132 [label=<Location &le; 16.5<br/>gini = 0.5<br/>samples = 24<br/>value = [12, 12]<br/>class = No>, fillcolor="#ffffff"] ;
120 -> 132 ;
133 [label=<Humidity9am &le; 0.645<br/>gini = 0.346<br/>samples = 9<br/>value = [2, 7]<br/>class = Yes>, fillcolor="#72b9ec"] ;
132 -> 133 ;
134 [label=<gini = 0.0<br/>samples = 2<br/>value = [2, 0]<br/>class = No>, fillcolor="#e58139"] ;
133 -> 134 ;
135 [label=<gini = 0.0<br/>samples = 7<br/>value = [0, 7]<br/>class = Yes>, fillcolor="#399de5"] ;
133 -> 135 ;
136 [label=<Pressure9am &le; 0.571<br/>gini = 0.444<br/>samples = 15<br/>value = [10, 5]<br/>class = No>, fillcolor="#f2c09c"] ;
132 -> 136 ;
137 [label=<WindDir9am &le; 12.5<br/>gini = 0.278<br/>samples = 12<br/>value = [10, 2]<br/>class = No>, fillcolor="#ea9a61"] ;
136 -> 137 ;
138 [label=<Location &le; 18.5<br/>gini = 0.165<br/>samples = 11<br/>value = [10, 1]<br/>class = No>, fillcolor="#e88e4d"] ;
137 -> 138 ;
139 [label=<Pressure3pm &le; 0.448<br/>gini = 0.5<br/>samples = 2<br/>value = [1, 1]<br/>class = No>, fillcolor="#ffffff"] ;
138 -> 139 ;
140 [label=<gini = 0.0<br/>samples = 1<br/>value = [1, 0]<br/>class = No>, fillcolor="#e58139"] ;
139 -> 140 ;
141 [label=<gini = 0.0<br/>samples = 1<br/>value = [0, 1]<br/>class = Yes>, fillcolor="#399de5"] ;
139 -> 141 ;
142 [label=<gini = 0.0<br/>samples = 9<br/>value = [9, 0]<br/>class = No>, fillcolor="#e58139"] ;
138 -> 142 ;
143 [label=<gini = 0.0<br/>samples = 1<br/>value = [0, 1]<br/>class = Yes>, fillcolor="#399de5"] ;
137 -> 143 ;
144 [label=<gini = 0.0<br/>samples = 3<br/>value = [0, 3]<br/>class = Yes>, fillcolor="#399de5"] ;
136 -> 144 ;
145 [label=<MaxTemp &le; 0.614<br/>gini = 0.346<br/>samples = 9<br/>value = [2, 7]<br/>class = Yes>, fillcolor="#72b9ec"] ;
119 -> 145 ;
146 [label=<gini = 0.0<br/>samples = 7<br/>value = [0, 7]<br/>class = Yes>, fillcolor="#399de5"] ;
145 -> 146 ;
147 [label=<gini = 0.0<br/>samples = 2<br/>value = [2, 0]<br/>class = No>, fillcolor="#e58139"] ;
145 -> 147 ;
148 [label=<Pressure3pm &le; 0.49<br/>gini = 0.461<br/>samples = 25<br/>value = [9, 16]<br/>class = Yes>, fillcolor="#a8d4f4"] ;
118 -> 148 ;
149 [label=<Evaporation &le; 0.104<br/>gini = 0.32<br/>samples = 5<br/>value = [4, 1]<br/>class = No>, fillcolor="#eca06a"] ;
148 -> 149 ;
150 [label=<gini = 0.0<br/>samples = 4<br/>value = [4, 0]<br/>class = No>, fillcolor="#e58139"] ;
149 -> 150 ;
151 [label=<gini = 0.0<br/>samples = 1<br/>value = [0, 1]<br/>class = Yes>, fillcolor="#399de5"] ;
149 -> 151 ;
152 [label=<MinTemp &le; 0.672<br/>gini = 0.375<br/>samples = 20<br/>value = [5, 15]<br/>class = Yes>, fillcolor="#7bbeee"] ;
148 -> 152 ;
153 [label=<MaxTemp &le; 0.545<br/>gini = 0.5<br/>samples = 10<br/>value = [5, 5]<br/>class = No>, fillcolor="#ffffff"] ;
152 -> 153 ;
154 [label=<WindSpeed3pm &le; 0.213<br/>gini = 0.278<br/>samples = 6<br/>value = [1, 5]<br/>class = Yes>, fillcolor="#61b1ea"] ;
153 -> 154 ;
155 [label=<gini = 0.0<br/>samples = 5<br/>value = [0, 5]<br/>class = Yes>, fillcolor="#399de5"] ;
154 -> 155 ;
156 [label=<gini = 0.0<br/>samples = 1<br/>value = [1, 0]<br/>class = No>, fillcolor="#e58139"] ;
154 -> 156 ;
157 [label=<gini = 0.0<br/>samples = 4<br/>value = [4, 0]<br/>class = No>, fillcolor="#e58139"] ;
153 -> 157 ;
158 [label=<gini = 0.0<br/>samples = 10<br/>value = [0, 10]<br/>class = Yes>, fillcolor="#399de5"] ;
152 -> 158 ;
159 [label=<Pressure3pm &le; 0.433<br/>gini = 0.438<br/>samples = 2726<br/>value = [1844, 882]<br/>class = No>, fillcolor="#f1bd98"] ;
59 -> 159 ;
160 [label=<Sunshine &le; 0.314<br/>gini = 0.5<br/>samples = 258<br/>value = [128, 130]<br/>class = Yes>, fillcolor="#fcfdff"] ;
159 -> 160 ;
161 [label=<Pressure3pm &le; 0.412<br/>gini = 0.479<br/>samples = 111<br/>value = [44, 67]<br/>class = Yes>, fillcolor="#bbddf6"] ;
160 -> 161 ;
162 [label=<Sunshine &le; 0.093<br/>gini = 0.417<br/>samples = 71<br/>value = [21, 50]<br/>class = Yes>, fillcolor="#8cc6f0"] ;
161 -> 162 ;
163 [label=<Pressure9am &le; 0.354<br/>gini = 0.408<br/>samples = 7<br/>value = [5, 2]<br/>class = No>, fillcolor="#efb388"] ;
162 -> 163 ;
164 [label=<gini = 0.0<br/>samples = 2<br/>value = [0, 2]<br/>class = Yes>, fillcolor="#399de5"] ;
163 -> 164 ;
165 [label=<gini = 0.0<br/>samples = 5<br/>value = [5, 0]<br/>class = No>, fillcolor="#e58139"] ;
163 -> 165 ;
166 [label=<Humidity3pm &le; 0.435<br/>gini = 0.375<br/>samples = 64<br/>value = [16, 48]<br/>class = Yes>, fillcolor="#7bbeee"] ;
162 -> 166 ;
167 [label=<Evaporation &le; 0.039<br/>gini = 0.494<br/>samples = 9<br/>value = [5, 4]<br/>class = No>, fillcolor="#fae6d7"] ;
166 -> 167 ;
168 [label=<gini = 0.0<br/>samples = 5<br/>value = [5, 0]<br/>class = No>, fillcolor="#e58139"] ;
167 -> 168 ;
169 [label=<gini = 0.0<br/>samples = 4<br/>value = [0, 4]<br/>class = Yes>, fillcolor="#399de5"] ;
167 -> 169 ;
170 [label=<WindGustSpeed &le; 0.178<br/>gini = 0.32<br/>samples = 55<br/>value = [11, 44]<br/>class = Yes>, fillcolor="#6ab6ec"] ;
166 -> 170 ;
171 [label=<WindSpeed9am &le; 0.023<br/>gini = 0.444<br/>samples = 3<br/>value = [2, 1]<br/>class = No>, fillcolor="#f2c09c"] ;
170 -> 171 ;
172 [label=<gini = 0.0<br/>samples = 1<br/>value = [0, 1]<br/>class = Yes>, fillcolor="#399de5"] ;
171 -> 172 ;
173 [label=<gini = 0.0<br/>samples = 2<br/>value = [2, 0]<br/>class = No>, fillcolor="#e58139"] ;
171 -> 173 ;
174 [label=<Evaporation &le; 0.001<br/>gini = 0.286<br/>samples = 52<br/>value = [9, 43]<br/>class = Yes>, fillcolor="#62b2ea"] ;
170 -> 174 ;
175 [label=<gini = 0.0<br/>samples = 1<br/>value = [1, 0]<br/>class = No>, fillcolor="#e58139"] ;
174 -> 175 ;
176 [label=<Location &le; 0.5<br/>gini = 0.265<br/>samples = 51<br/>value = [8, 43]<br/>class = Yes>, fillcolor="#5eafea"] ;
174 -> 176 ;
177 [label=<gini = 0.0<br/>samples = 1<br/>value = [1, 0]<br/>class = No>, fillcolor="#e58139"] ;
176 -> 177 ;
178 [label=<WindDir9am &le; 2.5<br/>gini = 0.241<br/>samples = 50<br/>value = [7.0, 43.0]<br/>class = Yes>, fillcolor="#59ade9"] ;
176 -> 178 ;
179 [label=<Location &le; 24.0<br/>gini = 0.5<br/>samples = 4<br/>value = [2, 2]<br/>class = No>, fillcolor="#ffffff"] ;
178 -> 179 ;
180 [label=<gini = 0.0<br/>samples = 2<br/>value = [0, 2]<br/>class = Yes>, fillcolor="#399de5"] ;
179 -> 180 ;
181 [label=<gini = 0.0<br/>samples = 2<br/>value = [2, 0]<br/>class = No>, fillcolor="#e58139"] ;
179 -> 181 ;
182 [label=<Humidity9am &le; 0.645<br/>gini = 0.194<br/>samples = 46<br/>value = [5, 41]<br/>class = Yes>, fillcolor="#51a9e8"] ;
178 -> 182 ;
183 [label=<Temp3pm &le; 0.393<br/>gini = 0.444<br/>samples = 9<br/>value = [3, 6]<br/>class = Yes>, fillcolor="#9ccef2"] ;
182 -> 183 ;
184 [label=<gini = 0.0<br/>samples = 3<br/>value = [3, 0]<br/>class = No>, fillcolor="#e58139"] ;
183 -> 184 ;
185 [label=<gini = 0.0<br/>samples = 6<br/>value = [0, 6]<br/>class = Yes>, fillcolor="#399de5"] ;
183 -> 185 ;
186 [label=<Rainfall &le; 0.004<br/>gini = 0.102<br/>samples = 37<br/>value = [2, 35]<br/>class = Yes>, fillcolor="#44a3e6"] ;
182 -> 186 ;
187 [label=<WindSpeed9am &le; 0.162<br/>gini = 0.056<br/>samples = 35<br/>value = [1, 34]<br/>class = Yes>, fillcolor="#3fa0e6"] ;
186 -> 187 ;
188 [label=<gini = 0.0<br/>samples = 29<br/>value = [0, 29]<br/>class = Yes>, fillcolor="#399de5"] ;
187 -> 188 ;
189 [label=<Humidity9am &le; 0.735<br/>gini = 0.278<br/>samples = 6<br/>value = [1, 5]<br/>class = Yes>, fillcolor="#61b1ea"] ;
187 -> 189 ;
190 [label=<gini = 0.0<br/>samples = 4<br/>value = [0, 4]<br/>class = Yes>, fillcolor="#399de5"] ;
189 -> 190 ;
191 [label=<MinTemp &le; 0.371<br/>gini = 0.5<br/>samples = 2<br/>value = [1, 1]<br/>class = No>, fillcolor="#ffffff"] ;
189 -> 191 ;
192 [label=<gini = 0.0<br/>samples = 1<br/>value = [0, 1]<br/>class = Yes>, fillcolor="#399de5"] ;
191 -> 192 ;
193 [label=<gini = 0.0<br/>samples = 1<br/>value = [1, 0]<br/>class = No>, fillcolor="#e58139"] ;
191 -> 193 ;
194 [label=<Cloud3pm &le; 0.611<br/>gini = 0.5<br/>samples = 2<br/>value = [1, 1]<br/>class = No>, fillcolor="#ffffff"] ;
186 -> 194 ;
195 [label=<gini = 0.0<br/>samples = 1<br/>value = [1, 0]<br/>class = No>, fillcolor="#e58139"] ;
194 -> 195 ;
196 [label=<gini = 0.0<br/>samples = 1<br/>value = [0, 1]<br/>class = Yes>, fillcolor="#399de5"] ;
194 -> 196 ;
197 [label=<Evaporation &le; 0.01<br/>gini = 0.489<br/>samples = 40<br/>value = [23, 17]<br/>class = No>, fillcolor="#f8decb"] ;
161 -> 197 ;
198 [label=<gini = 0.0<br/>samples = 8<br/>value = [8, 0]<br/>class = No>, fillcolor="#e58139"] ;
197 -> 198 ;
199 [label=<Humidity9am &le; 0.695<br/>gini = 0.498<br/>samples = 32<br/>value = [15, 17]<br/>class = Yes>, fillcolor="#e8f3fc"] ;
197 -> 199 ;
200 [label=<Location &le; 40.5<br/>gini = 0.298<br/>samples = 11<br/>value = [9, 2]<br/>class = No>, fillcolor="#eb9d65"] ;
199 -> 200 ;
201 [label=<gini = 0.0<br/>samples = 8<br/>value = [8, 0]<br/>class = No>, fillcolor="#e58139"] ;
200 -> 201 ;
202 [label=<Humidity9am &le; 0.56<br/>gini = 0.444<br/>samples = 3<br/>value = [1, 2]<br/>class = Yes>, fillcolor="#9ccef2"] ;
200 -> 202 ;
203 [label=<gini = 0.0<br/>samples = 2<br/>value = [0, 2]<br/>class = Yes>, fillcolor="#399de5"] ;
202 -> 203 ;
204 [label=<gini = 0.0<br/>samples = 1<br/>value = [1, 0]<br/>class = No>, fillcolor="#e58139"] ;
202 -> 204 ;
205 [label=<WindGustSpeed &le; 0.248<br/>gini = 0.408<br/>samples = 21<br/>value = [6, 15]<br/>class = Yes>, fillcolor="#88c4ef"] ;
199 -> 205 ;
206 [label=<Sunshine &le; 0.166<br/>gini = 0.48<br/>samples = 10<br/>value = [6, 4]<br/>class = No>, fillcolor="#f6d5bd"] ;
205 -> 206 ;
207 [label=<gini = 0.0<br/>samples = 4<br/>value = [4, 0]<br/>class = No>, fillcolor="#e58139"] ;
206 -> 207 ;
208 [label=<WindGustDir &le; 4.0<br/>gini = 0.444<br/>samples = 6<br/>value = [2, 4]<br/>class = Yes>, fillcolor="#9ccef2"] ;
206 -> 208 ;
209 [label=<gini = 0.0<br/>samples = 2<br/>value = [2, 0]<br/>class = No>, fillcolor="#e58139"] ;
208 -> 209 ;
210 [label=<gini = 0.0<br/>samples = 4<br/>value = [0, 4]<br/>class = Yes>, fillcolor="#399de5"] ;
208 -> 210 ;
211 [label=<gini = 0.0<br/>samples = 11<br/>value = [0, 11]<br/>class = Yes>, fillcolor="#399de5"] ;
205 -> 211 ;
212 [label=<Evaporation &le; 0.042<br/>gini = 0.49<br/>samples = 147<br/>value = [84, 63]<br/>class = No>, fillcolor="#f8e0ce"] ;
160 -> 212 ;
213 [label=<Location &le; 2.0<br/>gini = 0.5<br/>samples = 101<br/>value = [50, 51]<br/>class = Yes>, fillcolor="#fbfdfe"] ;
212 -> 213 ;
214 [label=<WindGustSpeed &le; 0.268<br/>gini = 0.231<br/>samples = 15<br/>value = [2, 13]<br/>class = Yes>, fillcolor="#57ace9"] ;
213 -> 214 ;
215 [label=<Rainfall &le; 0.003<br/>gini = 0.133<br/>samples = 14<br/>value = [1, 13]<br/>class = Yes>, fillcolor="#48a5e7"] ;
214 -> 215 ;
216 [label=<gini = 0.0<br/>samples = 12<br/>value = [0, 12]<br/>class = Yes>, fillcolor="#399de5"] ;
215 -> 216 ;
217 [label=<Humidity9am &le; 0.665<br/>gini = 0.5<br/>samples = 2<br/>value = [1, 1]<br/>class = No>, fillcolor="#ffffff"] ;
215 -> 217 ;
218 [label=<gini = 0.0<br/>samples = 1<br/>value = [1, 0]<br/>class = No>, fillcolor="#e58139"] ;
217 -> 218 ;
219 [label=<gini = 0.0<br/>samples = 1<br/>value = [0, 1]<br/>class = Yes>, fillcolor="#399de5"] ;
217 -> 219 ;
220 [label=<gini = 0.0<br/>samples = 1<br/>value = [1, 0]<br/>class = No>, fillcolor="#e58139"] ;
214 -> 220 ;
221 [label=<Pressure3pm &le; 0.426<br/>gini = 0.493<br/>samples = 86<br/>value = [48, 38]<br/>class = No>, fillcolor="#fae5d6"] ;
213 -> 221 ;
222 [label=<Humidity3pm &le; 0.675<br/>gini = 0.473<br/>samples = 73<br/>value = [45, 28]<br/>class = No>, fillcolor="#f5cfb4"] ;
221 -> 222 ;
223 [label=<MinTemp &le; 0.535<br/>gini = 0.451<br/>samples = 67<br/>value = [44, 23]<br/>class = No>, fillcolor="#f3c3a0"] ;
222 -> 223 ;
224 [label=<WindDir9am &le; 7.5<br/>gini = 0.491<br/>samples = 44<br/>value = [25.0, 19.0]<br/>class = No>, fillcolor="#f9e1cf"] ;
223 -> 224 ;
225 [label=<WindDir3pm &le; 3.5<br/>gini = 0.46<br/>samples = 39<br/>value = [25.0, 14.0]<br/>class = No>, fillcolor="#f4c8a8"] ;
224 -> 225 ;
226 [label=<Evaporation &le; 0.033<br/>gini = 0.346<br/>samples = 9<br/>value = [2, 7]<br/>class = Yes>, fillcolor="#72b9ec"] ;
225 -> 226 ;
227 [label=<gini = 0.0<br/>samples = 7<br/>value = [0, 7]<br/>class = Yes>, fillcolor="#399de5"] ;
226 -> 227 ;
228 [label=<gini = 0.0<br/>samples = 2<br/>value = [2, 0]<br/>class = No>, fillcolor="#e58139"] ;
226 -> 228 ;
229 [label=<Pressure3pm &le; 0.38<br/>gini = 0.358<br/>samples = 30<br/>value = [23, 7]<br/>class = No>, fillcolor="#eda775"] ;
225 -> 229 ;
230 [label=<Sunshine &le; 0.41<br/>gini = 0.497<br/>samples = 13<br/>value = [7, 6]<br/>class = No>, fillcolor="#fbede3"] ;
229 -> 230 ;
231 [label=<Temp3pm &le; 0.314<br/>gini = 0.278<br/>samples = 6<br/>value = [5, 1]<br/>class = No>, fillcolor="#ea9a61"] ;
230 -> 231 ;
232 [label=<gini = 0.0<br/>samples = 1<br/>value = [0, 1]<br/>class = Yes>, fillcolor="#399de5"] ;
231 -> 232 ;
233 [label=<gini = 0.0<br/>samples = 5<br/>value = [5, 0]<br/>class = No>, fillcolor="#e58139"] ;
231 -> 233 ;
234 [label=<Humidity9am &le; 0.689<br/>gini = 0.408<br/>samples = 7<br/>value = [2, 5]<br/>class = Yes>, fillcolor="#88c4ef"] ;
230 -> 234 ;
235 [label=<gini = 0.0<br/>samples = 4<br/>value = [0, 4]<br/>class = Yes>, fillcolor="#399de5"] ;
234 -> 235 ;
236 [label=<Temp3pm &le; 0.348<br/>gini = 0.444<br/>samples = 3<br/>value = [2, 1]<br/>class = No>, fillcolor="#f2c09c"] ;
234 -> 236 ;
237 [label=<gini = 0.0<br/>samples = 1<br/>value = [0, 1]<br/>class = Yes>, fillcolor="#399de5"] ;
236 -> 237 ;
238 [label=<gini = 0.0<br/>samples = 2<br/>value = [2, 0]<br/>class = No>, fillcolor="#e58139"] ;
236 -> 238 ;
239 [label=<WindGustDir &le; 14.5<br/>gini = 0.111<br/>samples = 17<br/>value = [16, 1]<br/>class = No>, fillcolor="#e78945"] ;
229 -> 239 ;
240 [label=<gini = 0.0<br/>samples = 16<br/>value = [16, 0]<br/>class = No>, fillcolor="#e58139"] ;
239 -> 240 ;
241 [label=<gini = 0.0<br/>samples = 1<br/>value = [0, 1]<br/>class = Yes>, fillcolor="#399de5"] ;
239 -> 241 ;
242 [label=<gini = 0.0<br/>samples = 5<br/>value = [0, 5]<br/>class = Yes>, fillcolor="#399de5"] ;
224 -> 242 ;
243 [label=<Temp9am &le; 0.769<br/>gini = 0.287<br/>samples = 23<br/>value = [19, 4]<br/>class = No>, fillcolor="#ea9c63"] ;
223 -> 243 ;
244 [label=<Sunshine &le; 0.338<br/>gini = 0.1<br/>samples = 19<br/>value = [18, 1]<br/>class = No>, fillcolor="#e68844"] ;
243 -> 244 ;
245 [label=<gini = 0.0<br/>samples = 1<br/>value = [0, 1]<br/>class = Yes>, fillcolor="#399de5"] ;
244 -> 245 ;
246 [label=<gini = 0.0<br/>samples = 18<br/>value = [18, 0]<br/>class = No>, fillcolor="#e58139"] ;
244 -> 246 ;
247 [label=<Evaporation &le; 0.035<br/>gini = 0.375<br/>samples = 4<br/>value = [1, 3]<br/>class = Yes>, fillcolor="#7bbeee"] ;
243 -> 247 ;
248 [label=<gini = 0.0<br/>samples = 1<br/>value = [1, 0]<br/>class = No>, fillcolor="#e58139"] ;
247 -> 248 ;
249 [label=<gini = 0.0<br/>samples = 3<br/>value = [0, 3]<br/>class = Yes>, fillcolor="#399de5"] ;
247 -> 249 ;
250 [label=<Pressure9am &le; 0.257<br/>gini = 0.278<br/>samples = 6<br/>value = [1, 5]<br/>class = Yes>, fillcolor="#61b1ea"] ;
222 -> 250 ;
251 [label=<gini = 0.0<br/>samples = 1<br/>value = [1, 0]<br/>class = No>, fillcolor="#e58139"] ;
250 -> 251 ;
252 [label=<gini = 0.0<br/>samples = 5<br/>value = [0, 5]<br/>class = Yes>, fillcolor="#399de5"] ;
250 -> 252 ;
253 [label=<WindSpeed3pm &le; 0.138<br/>gini = 0.355<br/>samples = 13<br/>value = [3, 10]<br/>class = Yes>, fillcolor="#74baed"] ;
221 -> 253 ;
254 [label=<gini = 0.0<br/>samples = 2<br/>value = [2, 0]<br/>class = No>, fillcolor="#e58139"] ;
253 -> 254 ;
255 [label=<WindGustDir &le; 2.0<br/>gini = 0.165<br/>samples = 11<br/>value = [1, 10]<br/>class = Yes>, fillcolor="#4da7e8"] ;
253 -> 255 ;
256 [label=<gini = 0.0<br/>samples = 1<br/>value = [1, 0]<br/>class = No>, fillcolor="#e58139"] ;
255 -> 256 ;
257 [label=<gini = 0.0<br/>samples = 10<br/>value = [0, 10]<br/>class = Yes>, fillcolor="#399de5"] ;
255 -> 257 ;
258 [label=<Location &le; 40.5<br/>gini = 0.386<br/>samples = 46<br/>value = [34, 12]<br/>class = No>, fillcolor="#eead7f"] ;
212 -> 258 ;
259 [label=<Humidity9am &le; 0.785<br/>gini = 0.314<br/>samples = 41<br/>value = [33, 8]<br/>class = No>, fillcolor="#eba069"] ;
258 -> 259 ;
260 [label=<MaxTemp &le; 0.759<br/>gini = 0.234<br/>samples = 37<br/>value = [32, 5]<br/>class = No>, fillcolor="#e99558"] ;
259 -> 260 ;
261 [label=<Pressure3pm &le; 0.431<br/>gini = 0.157<br/>samples = 35<br/>value = [32, 3]<br/>class = No>, fillcolor="#e78d4c"] ;
260 -> 261 ;
262 [label=<Cloud9am &le; 0.389<br/>gini = 0.111<br/>samples = 34<br/>value = [32, 2]<br/>class = No>, fillcolor="#e78945"] ;
261 -> 262 ;
263 [label=<Evaporation &le; 0.05<br/>gini = 0.5<br/>samples = 4<br/>value = [2, 2]<br/>class = No>, fillcolor="#ffffff"] ;
262 -> 263 ;
264 [label=<gini = 0.0<br/>samples = 2<br/>value = [2, 0]<br/>class = No>, fillcolor="#e58139"] ;
263 -> 264 ;
265 [label=<gini = 0.0<br/>samples = 2<br/>value = [0, 2]<br/>class = Yes>, fillcolor="#399de5"] ;
263 -> 265 ;
266 [label=<gini = 0.0<br/>samples = 30<br/>value = [30, 0]<br/>class = No>, fillcolor="#e58139"] ;
262 -> 266 ;
267 [label=<gini = 0.0<br/>samples = 1<br/>value = [0, 1]<br/>class = Yes>, fillcolor="#399de5"] ;
261 -> 267 ;
268 [label=<gini = 0.0<br/>samples = 2<br/>value = [0, 2]<br/>class = Yes>, fillcolor="#399de5"] ;
260 -> 268 ;
269 [label=<MinTemp &le; 0.805<br/>gini = 0.375<br/>samples = 4<br/>value = [1, 3]<br/>class = Yes>, fillcolor="#7bbeee"] ;
259 -> 269 ;
270 [label=<gini = 0.0<br/>samples = 1<br/>value = [1, 0]<br/>class = No>, fillcolor="#e58139"] ;
269 -> 270 ;
271 [label=<gini = 0.0<br/>samples = 3<br/>value = [0, 3]<br/>class = Yes>, fillcolor="#399de5"] ;
269 -> 271 ;
272 [label=<MinTemp &le; 0.656<br/>gini = 0.32<br/>samples = 5<br/>value = [1, 4]<br/>class = Yes>, fillcolor="#6ab6ec"] ;
258 -> 272 ;
273 [label=<gini = 0.0<br/>samples = 4<br/>value = [0, 4]<br/>class = Yes>, fillcolor="#399de5"] ;
272 -> 273 ;
274 [label=<gini = 0.0<br/>samples = 1<br/>value = [1, 0]<br/>class = No>, fillcolor="#e58139"] ;
272 -> 274 ;
275 [label=<Humidity3pm &le; 0.575<br/>gini = 0.424<br/>samples = 2468<br/>value = [1716, 752]<br/>class = No>, fillcolor="#f0b890"] ;
159 -> 275 ;
276 [label=<WindDir3pm &le; 7.5<br/>gini = 0.384<br/>samples = 1380<br/>value = [1023.0, 357.0]<br/>class = No>, fillcolor="#eead7e"] ;
275 -> 276 ;
277 [label=<Location &le; 2.0<br/>gini = 0.436<br/>samples = 729<br/>value = [495, 234]<br/>class = No>, fillcolor="#f1bd97"] ;
276 -> 277 ;
278 [label=<Evaporation &le; 0.017<br/>gini = 0.45<br/>samples = 38<br/>value = [13, 25]<br/>class = Yes>, fillcolor="#a0d0f3"] ;
277 -> 278 ;
279 [label=<gini = 0.0<br/>samples = 13<br/>value = [0, 13]<br/>class = Yes>, fillcolor="#399de5"] ;
278 -> 279 ;
280 [label=<Pressure3pm &le; 0.506<br/>gini = 0.499<br/>samples = 25<br/>value = [13, 12]<br/>class = No>, fillcolor="#fdf5f0"] ;
278 -> 280 ;
281 [label=<WindDir9am &le; 3.0<br/>gini = 0.245<br/>samples = 7<br/>value = [1, 6]<br/>class = Yes>, fillcolor="#5aade9"] ;
280 -> 281 ;
282 [label=<gini = 0.0<br/>samples = 1<br/>value = [1, 0]<br/>class = No>, fillcolor="#e58139"] ;
281 -> 282 ;
283 [label=<gini = 0.0<br/>samples = 6<br/>value = [0, 6]<br/>class = Yes>, fillcolor="#399de5"] ;
281 -> 283 ;
284 [label=<Humidity9am &le; 0.375<br/>gini = 0.444<br/>samples = 18<br/>value = [12, 6]<br/>class = No>, fillcolor="#f2c09c"] ;
280 -> 284 ;
285 [label=<gini = 0.0<br/>samples = 2<br/>value = [0, 2]<br/>class = Yes>, fillcolor="#399de5"] ;
284 -> 285 ;
286 [label=<Evaporation &le; 0.054<br/>gini = 0.375<br/>samples = 16<br/>value = [12, 4]<br/>class = No>, fillcolor="#eeab7b"] ;
284 -> 286 ;
287 [label=<Pressure9am &le; 0.605<br/>gini = 0.245<br/>samples = 14<br/>value = [12, 2]<br/>class = No>, fillcolor="#e9965a"] ;
286 -> 287 ;
288 [label=<WindSpeed9am &le; 0.15<br/>gini = 0.142<br/>samples = 13<br/>value = [12, 1]<br/>class = No>, fillcolor="#e78c49"] ;
287 -> 288 ;
289 [label=<gini = 0.0<br/>samples = 11<br/>value = [11, 0]<br/>class = No>, fillcolor="#e58139"] ;
288 -> 289 ;
290 [label=<Temp9am &le; 0.495<br/>gini = 0.5<br/>samples = 2<br/>value = [1, 1]<br/>class = No>, fillcolor="#ffffff"] ;
288 -> 290 ;
291 [label=<gini = 0.0<br/>samples = 1<br/>value = [1, 0]<br/>class = No>, fillcolor="#e58139"] ;
290 -> 291 ;
292 [label=<gini = 0.0<br/>samples = 1<br/>value = [0, 1]<br/>class = Yes>, fillcolor="#399de5"] ;
290 -> 292 ;
293 [label=<gini = 0.0<br/>samples = 1<br/>value = [0, 1]<br/>class = Yes>, fillcolor="#399de5"] ;
287 -> 293 ;
294 [label=<gini = 0.0<br/>samples = 2<br/>value = [0, 2]<br/>class = Yes>, fillcolor="#399de5"] ;
286 -> 294 ;
295 [label=<Location &le; 16.5<br/>gini = 0.422<br/>samples = 691<br/>value = [482.0, 209.0]<br/>class = No>, fillcolor="#f0b88f"] ;
277 -> 295 ;
296 [label=<MinTemp &le; 0.833<br/>gini = 0.311<br/>samples = 265<br/>value = [214, 51]<br/>class = No>, fillcolor="#eb9f68"] ;
295 -> 296 ;
297 [label=<Sunshine &le; 0.107<br/>gini = 0.295<br/>samples = 261<br/>value = [214, 47]<br/>class = No>, fillcolor="#eb9d64"] ;
296 -> 297 ;
298 [label=<WindSpeed9am &le; 0.092<br/>gini = 0.494<br/>samples = 18<br/>value = [8, 10]<br/>class = Yes>, fillcolor="#d7ebfa"] ;
297 -> 298 ;
299 [label=<WindDir9am &le; 2.0<br/>gini = 0.219<br/>samples = 8<br/>value = [1, 7]<br/>class = Yes>, fillcolor="#55abe9"] ;
298 -> 299 ;
300 [label=<gini = 0.0<br/>samples = 1<br/>value = [1, 0]<br/>class = No>, fillcolor="#e58139"] ;
299 -> 300 ;
301 [label=<gini = 0.0<br/>samples = 7<br/>value = [0, 7]<br/>class = Yes>, fillcolor="#399de5"] ;
299 -> 301 ;
302 [label=<Humidity3pm &le; 0.475<br/>gini = 0.42<br/>samples = 10<br/>value = [7, 3]<br/>class = No>, fillcolor="#f0b78e"] ;
298 -> 302 ;
303 [label=<gini = 0.0<br/>samples = 2<br/>value = [0, 2]<br/>class = Yes>, fillcolor="#399de5"] ;
302 -> 303 ;
304 [label=<MinTemp &le; 0.32<br/>gini = 0.219<br/>samples = 8<br/>value = [7, 1]<br/>class = No>, fillcolor="#e99355"] ;
302 -> 304 ;
305 [label=<gini = 0.0<br/>samples = 1<br/>value = [0, 1]<br/>class = Yes>, fillcolor="#399de5"] ;
304 -> 305 ;
306 [label=<gini = 0.0<br/>samples = 7<br/>value = [7, 0]<br/>class = No>, fillcolor="#e58139"] ;
304 -> 306 ;
307 [label=<MaxTemp &le; 0.758<br/>gini = 0.258<br/>samples = 243<br/>value = [206, 37]<br/>class = No>, fillcolor="#ea985d"] ;
297 -> 307 ;
308 [label=<Humidity9am &le; 0.865<br/>gini = 0.248<br/>samples = 241<br/>value = [206, 35]<br/>class = No>, fillcolor="#e9965b"] ;
307 -> 308 ;
309 [label=<Pressure9am &le; 0.588<br/>gini = 0.227<br/>samples = 230<br/>value = [200, 30]<br/>class = No>, fillcolor="#e99457"] ;
308 -> 309 ;
310 [label=<Temp9am &le; 0.771<br/>gini = 0.177<br/>samples = 184<br/>value = [166, 18]<br/>class = No>, fillcolor="#e88f4e"] ;
309 -> 310 ;
311 [label=<Cloud3pm &le; 0.722<br/>gini = 0.155<br/>samples = 177<br/>value = [162, 15]<br/>class = No>, fillcolor="#e78d4b"] ;
310 -> 311 ;
312 [label=<Evaporation &le; 0.042<br/>gini = 0.086<br/>samples = 111<br/>value = [106, 5]<br/>class = No>, fillcolor="#e68742"] ;
311 -> 312 ;
313 [label=<WindGustSpeed &le; 0.318<br/>gini = 0.025<br/>samples = 79<br/>value = [78, 1]<br/>class = No>, fillcolor="#e5833c"] ;
312 -> 313 ;
314 [label=<gini = 0.0<br/>samples = 66<br/>value = [66, 0]<br/>class = No>, fillcolor="#e58139"] ;
313 -> 314 ;
315 [label=<WindDir9am &le; 4.0<br/>gini = 0.142<br/>samples = 13<br/>value = [12, 1]<br/>class = No>, fillcolor="#e78c49"] ;
313 -> 315 ;
316 [label=<gini = 0.0<br/>samples = 1<br/>value = [0, 1]<br/>class = Yes>, fillcolor="#399de5"] ;
315 -> 316 ;
317 [label=<gini = 0.0<br/>samples = 12<br/>value = [12, 0]<br/>class = No>, fillcolor="#e58139"] ;
315 -> 317 ;
318 [label=<Temp9am &le; 0.494<br/>gini = 0.219<br/>samples = 32<br/>value = [28, 4]<br/>class = No>, fillcolor="#e99355"] ;
312 -> 318 ;
319 [label=<Pressure9am &le; 0.512<br/>gini = 0.375<br/>samples = 4<br/>value = [1, 3]<br/>class = Yes>, fillcolor="#7bbeee"] ;
318 -> 319 ;
320 [label=<gini = 0.0<br/>samples = 1<br/>value = [1, 0]<br/>class = No>, fillcolor="#e58139"] ;
319 -> 320 ;
321 [label=<gini = 0.0<br/>samples = 3<br/>value = [0, 3]<br/>class = Yes>, fillcolor="#399de5"] ;
319 -> 321 ;
322 [label=<Cloud9am &le; 0.167<br/>gini = 0.069<br/>samples = 28<br/>value = [27, 1]<br/>class = No>, fillcolor="#e68640"] ;
318 -> 322 ;
323 [label=<Temp9am &le; 0.638<br/>gini = 0.5<br/>samples = 2<br/>value = [1, 1]<br/>class = No>, fillcolor="#ffffff"] ;
322 -> 323 ;
324 [label=<gini = 0.0<br/>samples = 1<br/>value = [0, 1]<br/>class = Yes>, fillcolor="#399de5"] ;
323 -> 324 ;
325 [label=<gini = 0.0<br/>samples = 1<br/>value = [1, 0]<br/>class = No>, fillcolor="#e58139"] ;
323 -> 325 ;
326 [label=<gini = 0.0<br/>samples = 26<br/>value = [26, 0]<br/>class = No>, fillcolor="#e58139"] ;
322 -> 326 ;
327 [label=<MaxTemp &le; 0.392<br/>gini = 0.257<br/>samples = 66<br/>value = [56, 10]<br/>class = No>, fillcolor="#ea985c"] ;
311 -> 327 ;
328 [label=<WindSpeed3pm &le; 0.126<br/>gini = 0.375<br/>samples = 4<br/>value = [1, 3]<br/>class = Yes>, fillcolor="#7bbeee"] ;
327 -> 328 ;
329 [label=<gini = 0.0<br/>samples = 1<br/>value = [1, 0]<br/>class = No>, fillcolor="#e58139"] ;
328 -> 329 ;
330 [label=<gini = 0.0<br/>samples = 3<br/>value = [0, 3]<br/>class = Yes>, fillcolor="#399de5"] ;
328 -> 330 ;
331 [label=<Cloud9am &le; 0.833<br/>gini = 0.2<br/>samples = 62<br/>value = [55, 7]<br/>class = No>, fillcolor="#e89152"] ;
327 -> 331 ;
332 [label=<Humidity3pm &le; 0.555<br/>gini = 0.155<br/>samples = 59<br/>value = [54, 5]<br/>class = No>, fillcolor="#e78d4b"] ;
331 -> 332 ;
333 [label=<MaxTemp &le; 0.727<br/>gini = 0.043<br/>samples = 46<br/>value = [45, 1]<br/>class = No>, fillcolor="#e6843d"] ;
332 -> 333 ;
334 [label=<gini = 0.0<br/>samples = 41<br/>value = [41, 0]<br/>class = No>, fillcolor="#e58139"] ;
333 -> 334 ;
335 [label=<Temp9am &le; 0.746<br/>gini = 0.32<br/>samples = 5<br/>value = [4, 1]<br/>class = No>, fillcolor="#eca06a"] ;
333 -> 335 ;
336 [label=<gini = 0.0<br/>samples = 1<br/>value = [0, 1]<br/>class = Yes>, fillcolor="#399de5"] ;
335 -> 336 ;
337 [label=<gini = 0.0<br/>samples = 4<br/>value = [4, 0]<br/>class = No>, fillcolor="#e58139"] ;
335 -> 337 ;
338 [label=<Temp9am &le; 0.664<br/>gini = 0.426<br/>samples = 13<br/>value = [9, 4]<br/>class = No>, fillcolor="#f1b991"] ;
332 -> 338 ;
339 [label=<gini = 0.0<br/>samples = 5<br/>value = [5, 0]<br/>class = No>, fillcolor="#e58139"] ;
338 -> 339 ;
340 [label=<Sunshine &le; 0.352<br/>gini = 0.5<br/>samples = 8<br/>value = [4, 4]<br/>class = No>, fillcolor="#ffffff"] ;
338 -> 340 ;
341 [label=<gini = 0.0<br/>samples = 3<br/>value = [0, 3]<br/>class = Yes>, fillcolor="#399de5"] ;
340 -> 341 ;
342 [label=<Location &le; 7.5<br/>gini = 0.32<br/>samples = 5<br/>value = [4, 1]<br/>class = No>, fillcolor="#eca06a"] ;
340 -> 342 ;
343 [label=<gini = 0.0<br/>samples = 1<br/>value = [0, 1]<br/>class = Yes>, fillcolor="#399de5"] ;
342 -> 343 ;
344 [label=<gini = 0.0<br/>samples = 4<br/>value = [4, 0]<br/>class = No>, fillcolor="#e58139"] ;
342 -> 344 ;
345 [label=<Sunshine &le; 0.438<br/>gini = 0.444<br/>samples = 3<br/>value = [1, 2]<br/>class = Yes>, fillcolor="#9ccef2"] ;
331 -> 345 ;
346 [label=<gini = 0.0<br/>samples = 2<br/>value = [0, 2]<br/>class = Yes>, fillcolor="#399de5"] ;
345 -> 346 ;
347 [label=<gini = 0.0<br/>samples = 1<br/>value = [1, 0]<br/>class = No>, fillcolor="#e58139"] ;
345 -> 347 ;
348 [label=<Evaporation &le; 0.045<br/>gini = 0.49<br/>samples = 7<br/>value = [4, 3]<br/>class = No>, fillcolor="#f8e0ce"] ;
310 -> 348 ;
349 [label=<gini = 0.0<br/>samples = 4<br/>value = [4, 0]<br/>class = No>, fillcolor="#e58139"] ;
348 -> 349 ;
350 [label=<gini = 0.0<br/>samples = 3<br/>value = [0, 3]<br/>class = Yes>, fillcolor="#399de5"] ;
348 -> 350 ;
351 [label=<Sunshine &le; 0.514<br/>gini = 0.386<br/>samples = 46<br/>value = [34, 12]<br/>class = No>, fillcolor="#eead7f"] ;
309 -> 351 ;
352 [label=<Cloud9am &le; 0.525<br/>gini = 0.331<br/>samples = 43<br/>value = [34, 9]<br/>class = No>, fillcolor="#eca26d"] ;
351 -> 352 ;
353 [label=<WindSpeed9am &le; 0.092<br/>gini = 0.492<br/>samples = 16<br/>value = [9, 7]<br/>class = No>, fillcolor="#f9e3d3"] ;
352 -> 353 ;
354 [label=<gini = 0.0<br/>samples = 4<br/>value = [0, 4]<br/>class = Yes>, fillcolor="#399de5"] ;
353 -> 354 ;
355 [label=<Humidity3pm &le; 0.55<br/>gini = 0.375<br/>samples = 12<br/>value = [9, 3]<br/>class = No>, fillcolor="#eeab7b"] ;
353 -> 355 ;
356 [label=<Sunshine &le; 0.334<br/>gini = 0.18<br/>samples = 10<br/>value = [9, 1]<br/>class = No>, fillcolor="#e88f4f"] ;
355 -> 356 ;
357 [label=<gini = 0.0<br/>samples = 1<br/>value = [0, 1]<br/>class = Yes>, fillcolor="#399de5"] ;
356 -> 357 ;
358 [label=<gini = 0.0<br/>samples = 9<br/>value = [9, 0]<br/>class = No>, fillcolor="#e58139"] ;
356 -> 358 ;
359 [label=<gini = 0.0<br/>samples = 2<br/>value = [0, 2]<br/>class = Yes>, fillcolor="#399de5"] ;
355 -> 359 ;
360 [label=<MaxTemp &le; 0.696<br/>gini = 0.137<br/>samples = 27<br/>value = [25, 2]<br/>class = No>, fillcolor="#e78b49"] ;
352 -> 360 ;
361 [label=<WindGustSpeed &le; 0.105<br/>gini = 0.074<br/>samples = 26<br/>value = [25, 1]<br/>class = No>, fillcolor="#e68641"] ;
360 -> 361 ;
362 [label=<Location &le; 8.5<br/>gini = 0.5<br/>samples = 2<br/>value = [1, 1]<br/>class = No>, fillcolor="#ffffff"] ;
361 -> 362 ;
363 [label=<gini = 0.0<br/>samples = 1<br/>value = [0, 1]<br/>class = Yes>, fillcolor="#399de5"] ;
362 -> 363 ;
364 [label=<gini = 0.0<br/>samples = 1<br/>value = [1, 0]<br/>class = No>, fillcolor="#e58139"] ;
362 -> 364 ;
365 [label=<gini = 0.0<br/>samples = 24<br/>value = [24, 0]<br/>class = No>, fillcolor="#e58139"] ;
361 -> 365 ;
366 [label=<gini = 0.0<br/>samples = 1<br/>value = [0, 1]<br/>class = Yes>, fillcolor="#399de5"] ;
360 -> 366 ;
367 [label=<gini = 0.0<br/>samples = 3<br/>value = [0, 3]<br/>class = Yes>, fillcolor="#399de5"] ;
351 -> 367 ;
368 [label=<MaxTemp &le; 0.52<br/>gini = 0.496<br/>samples = 11<br/>value = [6, 5]<br/>class = No>, fillcolor="#fbeade"] ;
308 -> 368 ;
369 [label=<gini = 0.0<br/>samples = 5<br/>value = [5, 0]<br/>class = No>, fillcolor="#e58139"] ;
368 -> 369 ;
370 [label=<Temp9am &le; 0.391<br/>gini = 0.278<br/>samples = 6<br/>value = [1, 5]<br/>class = Yes>, fillcolor="#61b1ea"] ;
368 -> 370 ;
371 [label=<gini = 0.0<br/>samples = 1<br/>value = [1, 0]<br/>class = No>, fillcolor="#e58139"] ;
370 -> 371 ;
372 [label=<gini = 0.0<br/>samples = 5<br/>value = [0, 5]<br/>class = Yes>, fillcolor="#399de5"] ;
370 -> 372 ;
373 [label=<gini = 0.0<br/>samples = 2<br/>value = [0, 2]<br/>class = Yes>, fillcolor="#399de5"] ;
307 -> 373 ;
374 [label=<gini = 0.0<br/>samples = 4<br/>value = [0, 4]<br/>class = Yes>, fillcolor="#399de5"] ;
296 -> 374 ;
375 [label=<Location &le; 32.5<br/>gini = 0.467<br/>samples = 426<br/>value = [268, 158]<br/>class = No>, fillcolor="#f4cbae"] ;
295 -> 375 ;
376 [label=<WindDir9am &le; 3.5<br/>gini = 0.499<br/>samples = 204<br/>value = [107, 97]<br/>class = No>, fillcolor="#fdf3ec"] ;
375 -> 376 ;
377 [label=<Temp3pm &le; 0.473<br/>gini = 0.459<br/>samples = 101<br/>value = [65, 36]<br/>class = No>, fillcolor="#f3c7a7"] ;
376 -> 377 ;
378 [label=<Sunshine &le; 0.059<br/>gini = 0.198<br/>samples = 27<br/>value = [24, 3]<br/>class = No>, fillcolor="#e89152"] ;
377 -> 378 ;
379 [label=<gini = 0.0<br/>samples = 1<br/>value = [0, 1]<br/>class = Yes>, fillcolor="#399de5"] ;
378 -> 379 ;
380 [label=<Location &le; 18.5<br/>gini = 0.142<br/>samples = 26<br/>value = [24, 2]<br/>class = No>, fillcolor="#e78c49"] ;
378 -> 380 ;
381 [label=<Evaporation &le; 0.014<br/>gini = 0.48<br/>samples = 5<br/>value = [3, 2]<br/>class = No>, fillcolor="#f6d5bd"] ;
380 -> 381 ;
382 [label=<gini = 0.0<br/>samples = 3<br/>value = [3, 0]<br/>class = No>, fillcolor="#e58139"] ;
381 -> 382 ;
383 [label=<gini = 0.0<br/>samples = 2<br/>value = [0, 2]<br/>class = Yes>, fillcolor="#399de5"] ;
381 -> 383 ;
384 [label=<gini = 0.0<br/>samples = 21<br/>value = [21, 0]<br/>class = No>, fillcolor="#e58139"] ;
380 -> 384 ;
385 [label=<Evaporation &le; 0.054<br/>gini = 0.494<br/>samples = 74<br/>value = [41, 33]<br/>class = No>, fillcolor="#fae6d8"] ;
377 -> 385 ;
386 [label=<Humidity3pm &le; 0.335<br/>gini = 0.492<br/>samples = 55<br/>value = [24.0, 31.0]<br/>class = Yes>, fillcolor="#d2e9f9"] ;
385 -> 386 ;
387 [label=<gini = 0.0<br/>samples = 8<br/>value = [8, 0]<br/>class = No>, fillcolor="#e58139"] ;
386 -> 387 ;
388 [label=<MinTemp &le; 0.709<br/>gini = 0.449<br/>samples = 47<br/>value = [16.0, 31.0]<br/>class = Yes>, fillcolor="#9fd0f2"] ;
386 -> 388 ;
389 [label=<WindGustSpeed &le; 0.233<br/>gini = 0.416<br/>samples = 44<br/>value = [13, 31]<br/>class = Yes>, fillcolor="#8cc6f0"] ;
388 -> 389 ;
390 [label=<Evaporation &le; 0.037<br/>gini = 0.48<br/>samples = 10<br/>value = [6, 4]<br/>class = No>, fillcolor="#f6d5bd"] ;
389 -> 390 ;
391 [label=<WindDir9am &le; 0.5<br/>gini = 0.444<br/>samples = 6<br/>value = [2, 4]<br/>class = Yes>, fillcolor="#9ccef2"] ;
390 -> 391 ;
392 [label=<gini = 0.0<br/>samples = 3<br/>value = [0, 3]<br/>class = Yes>, fillcolor="#399de5"] ;
391 -> 392 ;
393 [label=<Temp3pm &le; 0.659<br/>gini = 0.444<br/>samples = 3<br/>value = [2, 1]<br/>class = No>, fillcolor="#f2c09c"] ;
391 -> 393 ;
394 [label=<gini = 0.0<br/>samples = 2<br/>value = [2, 0]<br/>class = No>, fillcolor="#e58139"] ;
393 -> 394 ;
395 [label=<gini = 0.0<br/>samples = 1<br/>value = [0, 1]<br/>class = Yes>, fillcolor="#399de5"] ;
393 -> 395 ;
396 [label=<gini = 0.0<br/>samples = 4<br/>value = [4, 0]<br/>class = No>, fillcolor="#e58139"] ;
390 -> 396 ;
397 [label=<WindGustDir &le; 3.5<br/>gini = 0.327<br/>samples = 34<br/>value = [7, 27]<br/>class = Yes>, fillcolor="#6cb6ec"] ;
389 -> 397 ;
398 [label=<Temp9am &le; 0.611<br/>gini = 0.486<br/>samples = 12<br/>value = [5, 7]<br/>class = Yes>, fillcolor="#c6e3f8"] ;
397 -> 398 ;
399 [label=<MaxTemp &le; 0.485<br/>gini = 0.408<br/>samples = 7<br/>value = [5, 2]<br/>class = No>, fillcolor="#efb388"] ;
398 -> 399 ;
400 [label=<gini = 0.0<br/>samples = 2<br/>value = [0, 2]<br/>class = Yes>, fillcolor="#399de5"] ;
399 -> 400 ;
401 [label=<gini = 0.0<br/>samples = 5<br/>value = [5, 0]<br/>class = No>, fillcolor="#e58139"] ;
399 -> 401 ;
402 [label=<gini = 0.0<br/>samples = 5<br/>value = [0, 5]<br/>class = Yes>, fillcolor="#399de5"] ;
398 -> 402 ;
403 [label=<Sunshine &le; 0.059<br/>gini = 0.165<br/>samples = 22<br/>value = [2, 20]<br/>class = Yes>, fillcolor="#4da7e8"] ;
397 -> 403 ;
404 [label=<gini = 0.0<br/>samples = 1<br/>value = [1, 0]<br/>class = No>, fillcolor="#e58139"] ;
403 -> 404 ;
405 [label=<WindDir9am &le; 0.5<br/>gini = 0.091<br/>samples = 21<br/>value = [1, 20]<br/>class = Yes>, fillcolor="#43a2e6"] ;
403 -> 405 ;
406 [label=<MaxTemp &le; 0.667<br/>gini = 0.5<br/>samples = 2<br/>value = [1, 1]<br/>class = No>, fillcolor="#ffffff"] ;
405 -> 406 ;
407 [label=<gini = 0.0<br/>samples = 1<br/>value = [1, 0]<br/>class = No>, fillcolor="#e58139"] ;
406 -> 407 ;
408 [label=<gini = 0.0<br/>samples = 1<br/>value = [0, 1]<br/>class = Yes>, fillcolor="#399de5"] ;
406 -> 408 ;
409 [label=<gini = 0.0<br/>samples = 19<br/>value = [0, 19]<br/>class = Yes>, fillcolor="#399de5"] ;
405 -> 409 ;
410 [label=<gini = 0.0<br/>samples = 3<br/>value = [3, 0]<br/>class = No>, fillcolor="#e58139"] ;
388 -> 410 ;
411 [label=<Humidity9am &le; 0.665<br/>gini = 0.188<br/>samples = 19<br/>value = [17, 2]<br/>class = No>, fillcolor="#e89050"] ;
385 -> 411 ;
412 [label=<gini = 0.0<br/>samples = 16<br/>value = [16, 0]<br/>class = No>, fillcolor="#e58139"] ;
411 -> 412 ;
413 [label=<WindDir3pm &le; 4.0<br/>gini = 0.444<br/>samples = 3<br/>value = [1, 2]<br/>class = Yes>, fillcolor="#9ccef2"] ;
411 -> 413 ;
414 [label=<gini = 0.0<br/>samples = 2<br/>value = [0, 2]<br/>class = Yes>, fillcolor="#399de5"] ;
413 -> 414 ;
415 [label=<gini = 0.0<br/>samples = 1<br/>value = [1, 0]<br/>class = No>, fillcolor="#e58139"] ;
413 -> 415 ;
416 [label=<Location &le; 27.5<br/>gini = 0.483<br/>samples = 103<br/>value = [42.0, 61.0]<br/>class = Yes>, fillcolor="#c1e0f7"] ;
376 -> 416 ;
417 [label=<Pressure3pm &le; 0.471<br/>gini = 0.483<br/>samples = 54<br/>value = [32, 22]<br/>class = No>, fillcolor="#f7d8c1"] ;
416 -> 417 ;
418 [label=<gini = 0.0<br/>samples = 5<br/>value = [0, 5]<br/>class = Yes>, fillcolor="#399de5"] ;
417 -> 418 ;
419 [label=<WindGustDir &le; 13.5<br/>gini = 0.453<br/>samples = 49<br/>value = [32.0, 17.0]<br/>class = No>, fillcolor="#f3c4a2"] ;
417 -> 419 ;
420 [label=<Pressure3pm &le; 0.566<br/>gini = 0.411<br/>samples = 45<br/>value = [32.0, 13.0]<br/>class = No>, fillcolor="#f0b489"] ;
419 -> 420 ;
421 [label=<Sunshine &le; 0.507<br/>gini = 0.467<br/>samples = 35<br/>value = [22, 13]<br/>class = No>, fillcolor="#f4cbae"] ;
420 -> 421 ;
422 [label=<Pressure9am &le; 0.573<br/>gini = 0.43<br/>samples = 32<br/>value = [22, 10]<br/>class = No>, fillcolor="#f1ba93"] ;
421 -> 422 ;
423 [label=<Sunshine &le; 0.176<br/>gini = 0.287<br/>samples = 23<br/>value = [19, 4]<br/>class = No>, fillcolor="#ea9c63"] ;
422 -> 423 ;
424 [label=<WindGustDir &le; 10.5<br/>gini = 0.375<br/>samples = 4<br/>value = [1, 3]<br/>class = Yes>, fillcolor="#7bbeee"] ;
423 -> 424 ;
425 [label=<gini = 0.0<br/>samples = 1<br/>value = [1, 0]<br/>class = No>, fillcolor="#e58139"] ;
424 -> 425 ;
426 [label=<gini = 0.0<br/>samples = 3<br/>value = [0, 3]<br/>class = Yes>, fillcolor="#399de5"] ;
424 -> 426 ;
427 [label=<WindSpeed9am &le; 0.246<br/>gini = 0.1<br/>samples = 19<br/>value = [18, 1]<br/>class = No>, fillcolor="#e68844"] ;
423 -> 427 ;
428 [label=<gini = 0.0<br/>samples = 18<br/>value = [18, 0]<br/>class = No>, fillcolor="#e58139"] ;
427 -> 428 ;
429 [label=<gini = 0.0<br/>samples = 1<br/>value = [0, 1]<br/>class = Yes>, fillcolor="#399de5"] ;
427 -> 429 ;
430 [label=<Evaporation &le; 0.01<br/>gini = 0.444<br/>samples = 9<br/>value = [3, 6]<br/>class = Yes>, fillcolor="#9ccef2"] ;
422 -> 430 ;
431 [label=<gini = 0.0<br/>samples = 1<br/>value = [1, 0]<br/>class = No>, fillcolor="#e58139"] ;
430 -> 431 ;
432 [label=<MinTemp &le; 0.629<br/>gini = 0.375<br/>samples = 8<br/>value = [2, 6]<br/>class = Yes>, fillcolor="#7bbeee"] ;
430 -> 432 ;
433 [label=<gini = 0.0<br/>samples = 5<br/>value = [0, 5]<br/>class = Yes>, fillcolor="#399de5"] ;
432 -> 433 ;
434 [label=<WindDir3pm &le; 4.0<br/>gini = 0.444<br/>samples = 3<br/>value = [2, 1]<br/>class = No>, fillcolor="#f2c09c"] ;
432 -> 434 ;
435 [label=<gini = 0.0<br/>samples = 2<br/>value = [2, 0]<br/>class = No>, fillcolor="#e58139"] ;
434 -> 435 ;
436 [label=<gini = 0.0<br/>samples = 1<br/>value = [0, 1]<br/>class = Yes>, fillcolor="#399de5"] ;
434 -> 436 ;
437 [label=<gini = 0.0<br/>samples = 3<br/>value = [0, 3]<br/>class = Yes>, fillcolor="#399de5"] ;
421 -> 437 ;
438 [label=<gini = 0.0<br/>samples = 10<br/>value = [10, 0]<br/>class = No>, fillcolor="#e58139"] ;
420 -> 438 ;
439 [label=<gini = 0.0<br/>samples = 4<br/>value = [0, 4]<br/>class = Yes>, fillcolor="#399de5"] ;
419 -> 439 ;
440 [label=<WindDir9am &le; 8.5<br/>gini = 0.325<br/>samples = 49<br/>value = [10, 39]<br/>class = Yes>, fillcolor="#6cb6ec"] ;
416 -> 440 ;
441 [label=<MaxTemp &le; 0.36<br/>gini = 0.214<br/>samples = 41<br/>value = [5, 36]<br/>class = Yes>, fillcolor="#54abe9"] ;
440 -> 441 ;
442 [label=<gini = 0.0<br/>samples = 2<br/>value = [2, 0]<br/>class = No>, fillcolor="#e58139"] ;
441 -> 442 ;
443 [label=<Temp3pm &le; 0.71<br/>gini = 0.142<br/>samples = 39<br/>value = [3, 36]<br/>class = Yes>, fillcolor="#49a5e7"] ;
441 -> 443 ;
444 [label=<Pressure9am &le; 0.643<br/>gini = 0.1<br/>samples = 38<br/>value = [2, 36]<br/>class = Yes>, fillcolor="#44a2e6"] ;
443 -> 444 ;
445 [label=<Pressure9am &le; 0.613<br/>gini = 0.053<br/>samples = 37<br/>value = [1, 36]<br/>class = Yes>, fillcolor="#3ea0e6"] ;
444 -> 445 ;
446 [label=<gini = 0.0<br/>samples = 34<br/>value = [0, 34]<br/>class = Yes>, fillcolor="#399de5"] ;
445 -> 446 ;
447 [label=<WindSpeed3pm &le; 0.184<br/>gini = 0.444<br/>samples = 3<br/>value = [1, 2]<br/>class = Yes>, fillcolor="#9ccef2"] ;
445 -> 447 ;
448 [label=<gini = 0.0<br/>samples = 1<br/>value = [1, 0]<br/>class = No>, fillcolor="#e58139"] ;
447 -> 448 ;
449 [label=<gini = 0.0<br/>samples = 2<br/>value = [0, 2]<br/>class = Yes>, fillcolor="#399de5"] ;
447 -> 449 ;
450 [label=<gini = 0.0<br/>samples = 1<br/>value = [1, 0]<br/>class = No>, fillcolor="#e58139"] ;
444 -> 450 ;
451 [label=<gini = 0.0<br/>samples = 1<br/>value = [1, 0]<br/>class = No>, fillcolor="#e58139"] ;
443 -> 451 ;
452 [label=<WindSpeed9am &le; 0.05<br/>gini = 0.469<br/>samples = 8<br/>value = [5, 3]<br/>class = No>, fillcolor="#f5cdb0"] ;
440 -> 452 ;
453 [label=<gini = 0.0<br/>samples = 3<br/>value = [0, 3]<br/>class = Yes>, fillcolor="#399de5"] ;
452 -> 453 ;
454 [label=<gini = 0.0<br/>samples = 5<br/>value = [5, 0]<br/>class = No>, fillcolor="#e58139"] ;
452 -> 454 ;
455 [label=<Pressure3pm &le; 0.582<br/>gini = 0.399<br/>samples = 222<br/>value = [161.0, 61.0]<br/>class = No>, fillcolor="#efb184"] ;
375 -> 455 ;
456 [label=<Pressure3pm &le; 0.561<br/>gini = 0.386<br/>samples = 218<br/>value = [161, 57]<br/>class = No>, fillcolor="#eeae7f"] ;
455 -> 456 ;
457 [label=<Cloud3pm &le; 0.389<br/>gini = 0.424<br/>samples = 174<br/>value = [121, 53]<br/>class = No>, fillcolor="#f0b890"] ;
456 -> 457 ;
458 [label=<WindSpeed9am &le; 0.138<br/>gini = 0.147<br/>samples = 25<br/>value = [23, 2]<br/>class = No>, fillcolor="#e78c4a"] ;
457 -> 458 ;
459 [label=<gini = 0.0<br/>samples = 20<br/>value = [20, 0]<br/>class = No>, fillcolor="#e58139"] ;
458 -> 459 ;
460 [label=<Pressure9am &le; 0.529<br/>gini = 0.48<br/>samples = 5<br/>value = [3, 2]<br/>class = No>, fillcolor="#f6d5bd"] ;
458 -> 460 ;
461 [label=<gini = 0.0<br/>samples = 2<br/>value = [0, 2]<br/>class = Yes>, fillcolor="#399de5"] ;
460 -> 461 ;
462 [label=<gini = 0.0<br/>samples = 3<br/>value = [3, 0]<br/>class = No>, fillcolor="#e58139"] ;
460 -> 462 ;
463 [label=<WindGustDir &le; 6.5<br/>gini = 0.45<br/>samples = 149<br/>value = [98.0, 51.0]<br/>class = No>, fillcolor="#f3c3a0"] ;
457 -> 463 ;
464 [label=<Pressure3pm &le; 0.553<br/>gini = 0.372<br/>samples = 97<br/>value = [73, 24]<br/>class = No>, fillcolor="#eeaa7a"] ;
463 -> 464 ;
465 [label=<MinTemp &le; 0.281<br/>gini = 0.343<br/>samples = 91<br/>value = [71, 20]<br/>class = No>, fillcolor="#eca471"] ;
464 -> 465 ;
466 [label=<Pressure9am &le; 0.562<br/>gini = 0.48<br/>samples = 5<br/>value = [2, 3]<br/>class = Yes>, fillcolor="#bddef6"] ;
465 -> 466 ;
467 [label=<gini = 0.0<br/>samples = 2<br/>value = [0, 2]<br/>class = Yes>, fillcolor="#399de5"] ;
466 -> 467 ;
468 [label=<Evaporation &le; 0.015<br/>gini = 0.444<br/>samples = 3<br/>value = [2, 1]<br/>class = No>, fillcolor="#f2c09c"] ;
466 -> 468 ;
469 [label=<gini = 0.0<br/>samples = 1<br/>value = [0, 1]<br/>class = Yes>, fillcolor="#399de5"] ;
468 -> 469 ;
470 [label=<gini = 0.0<br/>samples = 2<br/>value = [2, 0]<br/>class = No>, fillcolor="#e58139"] ;
468 -> 470 ;
471 [label=<Evaporation &le; 0.049<br/>gini = 0.317<br/>samples = 86<br/>value = [69, 17]<br/>class = No>, fillcolor="#eba06a"] ;
465 -> 471 ;
472 [label=<WindSpeed3pm &le; 0.207<br/>gini = 0.198<br/>samples = 54<br/>value = [48, 6]<br/>class = No>, fillcolor="#e89152"] ;
471 -> 472 ;
473 [label=<Location &le; 44.5<br/>gini = 0.346<br/>samples = 27<br/>value = [21, 6]<br/>class = No>, fillcolor="#eca572"] ;
472 -> 473 ;
474 [label=<Rainfall &le; 0.001<br/>gini = 0.278<br/>samples = 24<br/>value = [20, 4]<br/>class = No>, fillcolor="#ea9a61"] ;
473 -> 474 ;
475 [label=<Pressure9am &le; 0.605<br/>gini = 0.227<br/>samples = 23<br/>value = [20, 3]<br/>class = No>, fillcolor="#e99457"] ;
474 -> 475 ;
476 [label=<MinTemp &le; 0.343<br/>gini = 0.165<br/>samples = 22<br/>value = [20, 2]<br/>class = No>, fillcolor="#e88e4d"] ;
475 -> 476 ;
477 [label=<gini = 0.0<br/>samples = 1<br/>value = [0, 1]<br/>class = Yes>, fillcolor="#399de5"] ;
476 -> 477 ;
478 [label=<Humidity9am &le; 0.98<br/>gini = 0.091<br/>samples = 21<br/>value = [20, 1]<br/>class = No>, fillcolor="#e68743"] ;
476 -> 478 ;
479 [label=<gini = 0.0<br/>samples = 19<br/>value = [19, 0]<br/>class = No>, fillcolor="#e58139"] ;
478 -> 479 ;
480 [label=<Pressure9am &le; 0.527<br/>gini = 0.5<br/>samples = 2<br/>value = [1, 1]<br/>class = No>, fillcolor="#ffffff"] ;
478 -> 480 ;
481 [label=<gini = 0.0<br/>samples = 1<br/>value = [0, 1]<br/>class = Yes>, fillcolor="#399de5"] ;
480 -> 481 ;
482 [label=<gini = 0.0<br/>samples = 1<br/>value = [1, 0]<br/>class = No>, fillcolor="#e58139"] ;
480 -> 482 ;
483 [label=<gini = 0.0<br/>samples = 1<br/>value = [0, 1]<br/>class = Yes>, fillcolor="#399de5"] ;
475 -> 483 ;
484 [label=<gini = 0.0<br/>samples = 1<br/>value = [0, 1]<br/>class = Yes>, fillcolor="#399de5"] ;
474 -> 484 ;
485 [label=<Cloud3pm &le; 0.722<br/>gini = 0.444<br/>samples = 3<br/>value = [1, 2]<br/>class = Yes>, fillcolor="#9ccef2"] ;
473 -> 485 ;
486 [label=<gini = 0.0<br/>samples = 1<br/>value = [1, 0]<br/>class = No>, fillcolor="#e58139"] ;
485 -> 486 ;
487 [label=<gini = 0.0<br/>samples = 2<br/>value = [0, 2]<br/>class = Yes>, fillcolor="#399de5"] ;
485 -> 487 ;
488 [label=<gini = 0.0<br/>samples = 27<br/>value = [27, 0]<br/>class = No>, fillcolor="#e58139"] ;
472 -> 488 ;
489 [label=<Evaporation &le; 0.07<br/>gini = 0.451<br/>samples = 32<br/>value = [21, 11]<br/>class = No>, fillcolor="#f3c3a1"] ;
471 -> 489 ;
490 [label=<Humidity3pm &le; 0.56<br/>gini = 0.5<br/>samples = 22<br/>value = [11, 11]<br/>class = No>, fillcolor="#ffffff"] ;
489 -> 490 ;
491 [label=<Pressure9am &le; 0.498<br/>gini = 0.488<br/>samples = 19<br/>value = [11, 8]<br/>class = No>, fillcolor="#f8ddc9"] ;
490 -> 491 ;
492 [label=<gini = 0.0<br/>samples = 5<br/>value = [5, 0]<br/>class = No>, fillcolor="#e58139"] ;
491 -> 492 ;
493 [label=<Temp9am &le; 0.614<br/>gini = 0.49<br/>samples = 14<br/>value = [6, 8]<br/>class = Yes>, fillcolor="#cee6f8"] ;
491 -> 493 ;
494 [label=<gini = 0.0<br/>samples = 4<br/>value = [0, 4]<br/>class = Yes>, fillcolor="#399de5"] ;
493 -> 494 ;
495 [label=<WindSpeed9am &le; 0.108<br/>gini = 0.48<br/>samples = 10<br/>value = [6, 4]<br/>class = No>, fillcolor="#f6d5bd"] ;
493 -> 495 ;
496 [label=<gini = 0.0<br/>samples = 2<br/>value = [0, 2]<br/>class = Yes>, fillcolor="#399de5"] ;
495 -> 496 ;
497 [label=<Pressure3pm &le; 0.535<br/>gini = 0.375<br/>samples = 8<br/>value = [6, 2]<br/>class = No>, fillcolor="#eeab7b"] ;
495 -> 497 ;
498 [label=<gini = 0.0<br/>samples = 5<br/>value = [5, 0]<br/>class = No>, fillcolor="#e58139"] ;
497 -> 498 ;
499 [label=<Temp9am &le; 0.677<br/>gini = 0.444<br/>samples = 3<br/>value = [1, 2]<br/>class = Yes>, fillcolor="#9ccef2"] ;
497 -> 499 ;
500 [label=<gini = 0.0<br/>samples = 1<br/>value = [1, 0]<br/>class = No>, fillcolor="#e58139"] ;
499 -> 500 ;
501 [label=<gini = 0.0<br/>samples = 2<br/>value = [0, 2]<br/>class = Yes>, fillcolor="#399de5"] ;
499 -> 501 ;
502 [label=<gini = 0.0<br/>samples = 3<br/>value = [0, 3]<br/>class = Yes>, fillcolor="#399de5"] ;
490 -> 502 ;
503 [label=<gini = 0.0<br/>samples = 10<br/>value = [10, 0]<br/>class = No>, fillcolor="#e58139"] ;
489 -> 503 ;
504 [label=<WindSpeed9am &le; 0.135<br/>gini = 0.444<br/>samples = 6<br/>value = [2, 4]<br/>class = Yes>, fillcolor="#9ccef2"] ;
464 -> 504 ;
505 [label=<gini = 0.0<br/>samples = 4<br/>value = [0, 4]<br/>class = Yes>, fillcolor="#399de5"] ;
504 -> 505 ;
506 [label=<gini = 0.0<br/>samples = 2<br/>value = [2, 0]<br/>class = No>, fillcolor="#e58139"] ;
504 -> 506 ;
507 [label=<Pressure9am &le; 0.488<br/>gini = 0.499<br/>samples = 52<br/>value = [25.0, 27.0]<br/>class = Yes>, fillcolor="#f0f8fd"] ;
463 -> 507 ;
508 [label=<WindGustDir &le; 7.5<br/>gini = 0.245<br/>samples = 14<br/>value = [12, 2]<br/>class = No>, fillcolor="#e9965a"] ;
507 -> 508 ;
509 [label=<gini = 0.0<br/>samples = 2<br/>value = [0, 2]<br/>class = Yes>, fillcolor="#399de5"] ;
508 -> 509 ;
510 [label=<gini = 0.0<br/>samples = 12<br/>value = [12, 0]<br/>class = No>, fillcolor="#e58139"] ;
508 -> 510 ;
511 [label=<Evaporation &le; 0.039<br/>gini = 0.45<br/>samples = 38<br/>value = [13, 25]<br/>class = Yes>, fillcolor="#a0d0f3"] ;
507 -> 511 ;
512 [label=<WindGustSpeed &le; 0.26<br/>gini = 0.497<br/>samples = 28<br/>value = [13, 15]<br/>class = Yes>, fillcolor="#e5f2fc"] ;
511 -> 512 ;
513 [label=<Location &le; 41.5<br/>gini = 0.346<br/>samples = 9<br/>value = [7, 2]<br/>class = No>, fillcolor="#eca572"] ;
512 -> 513 ;
514 [label=<gini = 0.0<br/>samples = 6<br/>value = [6, 0]<br/>class = No>, fillcolor="#e58139"] ;
513 -> 514 ;
515 [label=<WindSpeed9am &le; 0.035<br/>gini = 0.444<br/>samples = 3<br/>value = [1, 2]<br/>class = Yes>, fillcolor="#9ccef2"] ;
513 -> 515 ;
516 [label=<gini = 0.0<br/>samples = 1<br/>value = [1, 0]<br/>class = No>, fillcolor="#e58139"] ;
515 -> 516 ;
517 [label=<gini = 0.0<br/>samples = 2<br/>value = [0, 2]<br/>class = Yes>, fillcolor="#399de5"] ;
515 -> 517 ;
518 [label=<Pressure9am &le; 0.564<br/>gini = 0.432<br/>samples = 19<br/>value = [6, 13]<br/>class = Yes>, fillcolor="#94caf1"] ;
512 -> 518 ;
519 [label=<Temp3pm &le; 0.602<br/>gini = 0.5<br/>samples = 12<br/>value = [6, 6]<br/>class = No>, fillcolor="#ffffff"] ;
518 -> 519 ;
520 [label=<WindSpeed3pm &le; 0.075<br/>gini = 0.245<br/>samples = 7<br/>value = [6, 1]<br/>class = No>, fillcolor="#e9965a"] ;
519 -> 520 ;
521 [label=<gini = 0.0<br/>samples = 1<br/>value = [0, 1]<br/>class = Yes>, fillcolor="#399de5"] ;
520 -> 521 ;
522 [label=<gini = 0.0<br/>samples = 6<br/>value = [6, 0]<br/>class = No>, fillcolor="#e58139"] ;
520 -> 522 ;
523 [label=<gini = 0.0<br/>samples = 5<br/>value = [0, 5]<br/>class = Yes>, fillcolor="#399de5"] ;
519 -> 523 ;
524 [label=<gini = 0.0<br/>samples = 7<br/>value = [0, 7]<br/>class = Yes>, fillcolor="#399de5"] ;
518 -> 524 ;
525 [label=<gini = 0.0<br/>samples = 10<br/>value = [0, 10]<br/>class = Yes>, fillcolor="#399de5"] ;
511 -> 525 ;
526 [label=<Cloud3pm &le; 0.833<br/>gini = 0.165<br/>samples = 44<br/>value = [40, 4]<br/>class = No>, fillcolor="#e88e4d"] ;
456 -> 526 ;
527 [label=<Sunshine &le; 0.162<br/>gini = 0.091<br/>samples = 42<br/>value = [40, 2]<br/>class = No>, fillcolor="#e68743"] ;
526 -> 527 ;
528 [label=<Location &le; 43.0<br/>gini = 0.5<br/>samples = 4<br/>value = [2, 2]<br/>class = No>, fillcolor="#ffffff"] ;
527 -> 528 ;
529 [label=<gini = 0.0<br/>samples = 2<br/>value = [2, 0]<br/>class = No>, fillcolor="#e58139"] ;
528 -> 529 ;
530 [label=<gini = 0.0<br/>samples = 2<br/>value = [0, 2]<br/>class = Yes>, fillcolor="#399de5"] ;
528 -> 530 ;
531 [label=<gini = 0.0<br/>samples = 38<br/>value = [38, 0]<br/>class = No>, fillcolor="#e58139"] ;
527 -> 531 ;
532 [label=<gini = 0.0<br/>samples = 2<br/>value = [0, 2]<br/>class = Yes>, fillcolor="#399de5"] ;
526 -> 532 ;
533 [label=<gini = 0.0<br/>samples = 4<br/>value = [0, 4]<br/>class = Yes>, fillcolor="#399de5"] ;
455 -> 533 ;
534 [label=<Pressure3pm &le; 0.562<br/>gini = 0.306<br/>samples = 651<br/>value = [528.0, 123.0]<br/>class = No>, fillcolor="#eb9e67"] ;
276 -> 534 ;
535 [label=<Pressure9am &le; 0.591<br/>gini = 0.338<br/>samples = 497<br/>value = [390, 107]<br/>class = No>, fillcolor="#eca46f"] ;
534 -> 535 ;
536 [label=<WindSpeed9am &le; 0.092<br/>gini = 0.328<br/>samples = 488<br/>value = [387, 101]<br/>class = No>, fillcolor="#eca26d"] ;
535 -> 536 ;
537 [label=<Evaporation &le; 0.014<br/>gini = 0.401<br/>samples = 202<br/>value = [146.0, 56.0]<br/>class = No>, fillcolor="#efb185"] ;
536 -> 537 ;
538 [label=<gini = 0.0<br/>samples = 22<br/>value = [22, 0]<br/>class = No>, fillcolor="#e58139"] ;
537 -> 538 ;
539 [label=<MinTemp &le; 0.565<br/>gini = 0.429<br/>samples = 180<br/>value = [124, 56]<br/>class = No>, fillcolor="#f1ba92"] ;
537 -> 539 ;
540 [label=<Humidity3pm &le; 0.385<br/>gini = 0.488<br/>samples = 83<br/>value = [48, 35]<br/>class = No>, fillcolor="#f8ddc9"] ;
539 -> 540 ;
541 [label=<WindSpeed9am &le; 0.031<br/>gini = 0.117<br/>samples = 16<br/>value = [15, 1]<br/>class = No>, fillcolor="#e78946"] ;
540 -> 541 ;
542 [label=<Humidity9am &le; 0.75<br/>gini = 0.5<br/>samples = 2<br/>value = [1, 1]<br/>class = No>, fillcolor="#ffffff"] ;
541 -> 542 ;
543 [label=<gini = 0.0<br/>samples = 1<br/>value = [0, 1]<br/>class = Yes>, fillcolor="#399de5"] ;
542 -> 543 ;
544 [label=<gini = 0.0<br/>samples = 1<br/>value = [1, 0]<br/>class = No>, fillcolor="#e58139"] ;
542 -> 544 ;
545 [label=<gini = 0.0<br/>samples = 14<br/>value = [14, 0]<br/>class = No>, fillcolor="#e58139"] ;
541 -> 545 ;
546 [label=<Location &le; 18.5<br/>gini = 0.5<br/>samples = 67<br/>value = [33, 34]<br/>class = Yes>, fillcolor="#f9fcfe"] ;
540 -> 546 ;
547 [label=<Temp3pm &le; 0.489<br/>gini = 0.375<br/>samples = 20<br/>value = [15, 5]<br/>class = No>, fillcolor="#eeab7b"] ;
546 -> 547 ;
548 [label=<gini = 0.0<br/>samples = 11<br/>value = [11, 0]<br/>class = No>, fillcolor="#e58139"] ;
547 -> 548 ;
549 [label=<Sunshine &le; 0.403<br/>gini = 0.494<br/>samples = 9<br/>value = [4, 5]<br/>class = Yes>, fillcolor="#d7ebfa"] ;
547 -> 549 ;
550 [label=<gini = 0.0<br/>samples = 3<br/>value = [3, 0]<br/>class = No>, fillcolor="#e58139"] ;
549 -> 550 ;
551 [label=<Evaporation &le; 0.039<br/>gini = 0.278<br/>samples = 6<br/>value = [1, 5]<br/>class = Yes>, fillcolor="#61b1ea"] ;
549 -> 551 ;
552 [label=<gini = 0.0<br/>samples = 5<br/>value = [0, 5]<br/>class = Yes>, fillcolor="#399de5"] ;
551 -> 552 ;
553 [label=<gini = 0.0<br/>samples = 1<br/>value = [1, 0]<br/>class = No>, fillcolor="#e58139"] ;
551 -> 553 ;
554 [label=<Temp9am &le; 0.435<br/>gini = 0.473<br/>samples = 47<br/>value = [18, 29]<br/>class = Yes>, fillcolor="#b4daf5"] ;
546 -> 554 ;
555 [label=<Location &le; 44.5<br/>gini = 0.153<br/>samples = 12<br/>value = [1, 11]<br/>class = Yes>, fillcolor="#4ba6e7"] ;
554 -> 555 ;
556 [label=<gini = 0.0<br/>samples = 11<br/>value = [0, 11]<br/>class = Yes>, fillcolor="#399de5"] ;
555 -> 556 ;
557 [label=<gini = 0.0<br/>samples = 1<br/>value = [1, 0]<br/>class = No>, fillcolor="#e58139"] ;
555 -> 557 ;
558 [label=<Pressure3pm &le; 0.545<br/>gini = 0.5<br/>samples = 35<br/>value = [17, 18]<br/>class = Yes>, fillcolor="#f4fafe"] ;
554 -> 558 ;
559 [label=<MinTemp &le; 0.416<br/>gini = 0.461<br/>samples = 25<br/>value = [9, 16]<br/>class = Yes>, fillcolor="#a8d4f4"] ;
558 -> 559 ;
560 [label=<gini = 0.0<br/>samples = 3<br/>value = [3, 0]<br/>class = No>, fillcolor="#e58139"] ;
559 -> 560 ;
561 [label=<Humidity3pm &le; 0.565<br/>gini = 0.397<br/>samples = 22<br/>value = [6, 16]<br/>class = Yes>, fillcolor="#83c2ef"] ;
559 -> 561 ;
562 [label=<WindDir3pm &le; 14.0<br/>gini = 0.32<br/>samples = 20<br/>value = [4, 16]<br/>class = Yes>, fillcolor="#6ab6ec"] ;
561 -> 562 ;
563 [label=<MaxTemp &le; 0.694<br/>gini = 0.208<br/>samples = 17<br/>value = [2, 15]<br/>class = Yes>, fillcolor="#53aae8"] ;
562 -> 563 ;
564 [label=<WindSpeed9am &le; 0.008<br/>gini = 0.117<br/>samples = 16<br/>value = [1, 15]<br/>class = Yes>, fillcolor="#46a4e7"] ;
563 -> 564 ;
565 [label=<gini = 0.0<br/>samples = 1<br/>value = [1, 0]<br/>class = No>, fillcolor="#e58139"] ;
564 -> 565 ;
566 [label=<gini = 0.0<br/>samples = 15<br/>value = [0, 15]<br/>class = Yes>, fillcolor="#399de5"] ;
564 -> 566 ;
567 [label=<gini = 0.0<br/>samples = 1<br/>value = [1, 0]<br/>class = No>, fillcolor="#e58139"] ;
563 -> 567 ;
568 [label=<Temp9am &le; 0.54<br/>gini = 0.444<br/>samples = 3<br/>value = [2, 1]<br/>class = No>, fillcolor="#f2c09c"] ;
562 -> 568 ;
569 [label=<gini = 0.0<br/>samples = 2<br/>value = [2, 0]<br/>class = No>, fillcolor="#e58139"] ;
568 -> 569 ;
570 [label=<gini = 0.0<br/>samples = 1<br/>value = [0, 1]<br/>class = Yes>, fillcolor="#399de5"] ;
568 -> 570 ;
571 [label=<gini = 0.0<br/>samples = 2<br/>value = [2, 0]<br/>class = No>, fillcolor="#e58139"] ;
561 -> 571 ;
572 [label=<Humidity3pm &le; 0.425<br/>gini = 0.32<br/>samples = 10<br/>value = [8, 2]<br/>class = No>, fillcolor="#eca06a"] ;
558 -> 572 ;
573 [label=<gini = 0.0<br/>samples = 2<br/>value = [0, 2]<br/>class = Yes>, fillcolor="#399de5"] ;
572 -> 573 ;
574 [label=<gini = 0.0<br/>samples = 8<br/>value = [8, 0]<br/>class = No>, fillcolor="#e58139"] ;
572 -> 574 ;
575 [label=<Evaporation &le; 0.05<br/>gini = 0.339<br/>samples = 97<br/>value = [76, 21]<br/>class = No>, fillcolor="#eca470"] ;
539 -> 575 ;
576 [label=<MaxTemp &le; 0.5<br/>gini = 0.174<br/>samples = 52<br/>value = [47, 5]<br/>class = No>, fillcolor="#e88e4e"] ;
575 -> 576 ;
577 [label=<gini = 0.0<br/>samples = 1<br/>value = [0, 1]<br/>class = Yes>, fillcolor="#399de5"] ;
576 -> 577 ;
578 [label=<WindGustSpeed &le; 0.124<br/>gini = 0.145<br/>samples = 51<br/>value = [47, 4]<br/>class = No>, fillcolor="#e78c4a"] ;
576 -> 578 ;
579 [label=<gini = 0.0<br/>samples = 1<br/>value = [0, 1]<br/>class = Yes>, fillcolor="#399de5"] ;
578 -> 579 ;
580 [label=<Humidity9am &le; 0.815<br/>gini = 0.113<br/>samples = 50<br/>value = [47, 3]<br/>class = No>, fillcolor="#e78946"] ;
578 -> 580 ;
581 [label=<Temp3pm &le; 0.534<br/>gini = 0.048<br/>samples = 41<br/>value = [40, 1]<br/>class = No>, fillcolor="#e6843e"] ;
580 -> 581 ;
582 [label=<Rainfall &le; 0.001<br/>gini = 0.444<br/>samples = 3<br/>value = [2, 1]<br/>class = No>, fillcolor="#f2c09c"] ;
581 -> 582 ;
583 [label=<gini = 0.0<br/>samples = 2<br/>value = [2, 0]<br/>class = No>, fillcolor="#e58139"] ;
582 -> 583 ;
584 [label=<gini = 0.0<br/>samples = 1<br/>value = [0, 1]<br/>class = Yes>, fillcolor="#399de5"] ;
582 -> 584 ;
585 [label=<gini = 0.0<br/>samples = 38<br/>value = [38, 0]<br/>class = No>, fillcolor="#e58139"] ;
581 -> 585 ;
586 [label=<Humidity9am &le; 0.835<br/>gini = 0.346<br/>samples = 9<br/>value = [7, 2]<br/>class = No>, fillcolor="#eca572"] ;
580 -> 586 ;
587 [label=<gini = 0.0<br/>samples = 2<br/>value = [0, 2]<br/>class = Yes>, fillcolor="#399de5"] ;
586 -> 587 ;
588 [label=<gini = 0.0<br/>samples = 7<br/>value = [7, 0]<br/>class = No>, fillcolor="#e58139"] ;
586 -> 588 ;
589 [label=<Location &le; 24.0<br/>gini = 0.458<br/>samples = 45<br/>value = [29.0, 16.0]<br/>class = No>, fillcolor="#f3c7a6"] ;
575 -> 589 ;
590 [label=<WindSpeed9am &le; 0.077<br/>gini = 0.484<br/>samples = 17<br/>value = [7, 10]<br/>class = Yes>, fillcolor="#c4e2f7"] ;
589 -> 590 ;
591 [label=<Cloud3pm &le; 0.722<br/>gini = 0.408<br/>samples = 14<br/>value = [4, 10]<br/>class = Yes>, fillcolor="#88c4ef"] ;
590 -> 591 ;
592 [label=<gini = 0.0<br/>samples = 7<br/>value = [0, 7]<br/>class = Yes>, fillcolor="#399de5"] ;
591 -> 592 ;
593 [label=<WindGustSpeed &le; 0.268<br/>gini = 0.49<br/>samples = 7<br/>value = [4, 3]<br/>class = No>, fillcolor="#f8e0ce"] ;
591 -> 593 ;
594 [label=<gini = 0.0<br/>samples = 3<br/>value = [3, 0]<br/>class = No>, fillcolor="#e58139"] ;
593 -> 594 ;
595 [label=<Pressure3pm &le; 0.549<br/>gini = 0.375<br/>samples = 4<br/>value = [1, 3]<br/>class = Yes>, fillcolor="#7bbeee"] ;
593 -> 595 ;
596 [label=<gini = 0.0<br/>samples = 3<br/>value = [0, 3]<br/>class = Yes>, fillcolor="#399de5"] ;
595 -> 596 ;
597 [label=<gini = 0.0<br/>samples = 1<br/>value = [1, 0]<br/>class = No>, fillcolor="#e58139"] ;
595 -> 597 ;
598 [label=<gini = 0.0<br/>samples = 3<br/>value = [3, 0]<br/>class = No>, fillcolor="#e58139"] ;
590 -> 598 ;
599 [label=<Cloud3pm &le; 0.833<br/>gini = 0.337<br/>samples = 28<br/>value = [22, 6]<br/>class = No>, fillcolor="#eca36f"] ;
589 -> 599 ;
600 [label=<MaxTemp &le; 0.695<br/>gini = 0.26<br/>samples = 26<br/>value = [22, 4]<br/>class = No>, fillcolor="#ea985d"] ;
599 -> 600 ;
601 [label=<gini = 0.0<br/>samples = 16<br/>value = [16, 0]<br/>class = No>, fillcolor="#e58139"] ;
600 -> 601 ;
602 [label=<WindDir3pm &le; 12.5<br/>gini = 0.48<br/>samples = 10<br/>value = [6, 4]<br/>class = No>, fillcolor="#f6d5bd"] ;
600 -> 602 ;
603 [label=<Temp3pm &le; 0.732<br/>gini = 0.32<br/>samples = 5<br/>value = [1, 4]<br/>class = Yes>, fillcolor="#6ab6ec"] ;
602 -> 603 ;
604 [label=<gini = 0.0<br/>samples = 4<br/>value = [0, 4]<br/>class = Yes>, fillcolor="#399de5"] ;
603 -> 604 ;
605 [label=<gini = 0.0<br/>samples = 1<br/>value = [1, 0]<br/>class = No>, fillcolor="#e58139"] ;
603 -> 605 ;
606 [label=<gini = 0.0<br/>samples = 5<br/>value = [5, 0]<br/>class = No>, fillcolor="#e58139"] ;
602 -> 606 ;
607 [label=<gini = 0.0<br/>samples = 2<br/>value = [0, 2]<br/>class = Yes>, fillcolor="#399de5"] ;
599 -> 607 ;
608 [label=<Temp9am &le; 0.44<br/>gini = 0.265<br/>samples = 286<br/>value = [241.0, 45.0]<br/>class = No>, fillcolor="#ea995e"] ;
536 -> 608 ;
609 [label=<Humidity9am &le; 0.6<br/>gini = 0.39<br/>samples = 64<br/>value = [47, 17]<br/>class = No>, fillcolor="#eeaf81"] ;
608 -> 609 ;
610 [label=<WindGustSpeed &le; 0.279<br/>gini = 0.498<br/>samples = 17<br/>value = [8, 9]<br/>class = Yes>, fillcolor="#e9f4fc"] ;
609 -> 610 ;
611 [label=<MinTemp &le; 0.312<br/>gini = 0.32<br/>samples = 10<br/>value = [2, 8]<br/>class = Yes>, fillcolor="#6ab6ec"] ;
610 -> 611 ;
612 [label=<Cloud9am &le; 0.389<br/>gini = 0.444<br/>samples = 3<br/>value = [2, 1]<br/>class = No>, fillcolor="#f2c09c"] ;
611 -> 612 ;
613 [label=<gini = 0.0<br/>samples = 1<br/>value = [0, 1]<br/>class = Yes>, fillcolor="#399de5"] ;
612 -> 613 ;
614 [label=<gini = 0.0<br/>samples = 2<br/>value = [2, 0]<br/>class = No>, fillcolor="#e58139"] ;
612 -> 614 ;
615 [label=<gini = 0.0<br/>samples = 7<br/>value = [0, 7]<br/>class = Yes>, fillcolor="#399de5"] ;
611 -> 615 ;
616 [label=<Temp9am &le; 0.434<br/>gini = 0.245<br/>samples = 7<br/>value = [6, 1]<br/>class = No>, fillcolor="#e9965a"] ;
610 -> 616 ;
617 [label=<gini = 0.0<br/>samples = 6<br/>value = [6, 0]<br/>class = No>, fillcolor="#e58139"] ;
616 -> 617 ;
618 [label=<gini = 0.0<br/>samples = 1<br/>value = [0, 1]<br/>class = Yes>, fillcolor="#399de5"] ;
616 -> 618 ;
619 [label=<Cloud3pm &le; 0.833<br/>gini = 0.282<br/>samples = 47<br/>value = [39, 8]<br/>class = No>, fillcolor="#ea9b62"] ;
609 -> 619 ;
620 [label=<Temp9am &le; 0.438<br/>gini = 0.236<br/>samples = 44<br/>value = [38, 6]<br/>class = No>, fillcolor="#e99558"] ;
619 -> 620 ;
621 [label=<Cloud9am &le; 0.525<br/>gini = 0.176<br/>samples = 41<br/>value = [37, 4]<br/>class = No>, fillcolor="#e88f4e"] ;
620 -> 621 ;
622 [label=<Humidity9am &le; 0.68<br/>gini = 0.397<br/>samples = 11<br/>value = [8, 3]<br/>class = No>, fillcolor="#efb083"] ;
621 -> 622 ;
623 [label=<Humidity9am &le; 0.625<br/>gini = 0.5<br/>samples = 6<br/>value = [3, 3]<br/>class = No>, fillcolor="#ffffff"] ;
622 -> 623 ;
624 [label=<gini = 0.0<br/>samples = 3<br/>value = [3, 0]<br/>class = No>, fillcolor="#e58139"] ;
623 -> 624 ;
625 [label=<gini = 0.0<br/>samples = 3<br/>value = [0, 3]<br/>class = Yes>, fillcolor="#399de5"] ;
623 -> 625 ;
626 [label=<gini = 0.0<br/>samples = 5<br/>value = [5, 0]<br/>class = No>, fillcolor="#e58139"] ;
622 -> 626 ;
627 [label=<Sunshine &le; 0.176<br/>gini = 0.064<br/>samples = 30<br/>value = [29, 1]<br/>class = No>, fillcolor="#e68540"] ;
621 -> 627 ;
628 [label=<Pressure9am &le; 0.518<br/>gini = 0.375<br/>samples = 4<br/>value = [3, 1]<br/>class = No>, fillcolor="#eeab7b"] ;
627 -> 628 ;
629 [label=<gini = 0.0<br/>samples = 3<br/>value = [3, 0]<br/>class = No>, fillcolor="#e58139"] ;
628 -> 629 ;
630 [label=<gini = 0.0<br/>samples = 1<br/>value = [0, 1]<br/>class = Yes>, fillcolor="#399de5"] ;
628 -> 630 ;
631 [label=<gini = 0.0<br/>samples = 26<br/>value = [26, 0]<br/>class = No>, fillcolor="#e58139"] ;
627 -> 631 ;
632 [label=<Humidity3pm &le; 0.54<br/>gini = 0.444<br/>samples = 3<br/>value = [1, 2]<br/>class = Yes>, fillcolor="#9ccef2"] ;
620 -> 632 ;
633 [label=<gini = 0.0<br/>samples = 2<br/>value = [0, 2]<br/>class = Yes>, fillcolor="#399de5"] ;
632 -> 633 ;
634 [label=<gini = 0.0<br/>samples = 1<br/>value = [1, 0]<br/>class = No>, fillcolor="#e58139"] ;
632 -> 634 ;
635 [label=<WindSpeed9am &le; 0.15<br/>gini = 0.444<br/>samples = 3<br/>value = [1, 2]<br/>class = Yes>, fillcolor="#9ccef2"] ;
619 -> 635 ;
636 [label=<gini = 0.0<br/>samples = 1<br/>value = [1, 0]<br/>class = No>, fillcolor="#e58139"] ;
635 -> 636 ;
637 [label=<gini = 0.0<br/>samples = 2<br/>value = [0, 2]<br/>class = Yes>, fillcolor="#399de5"] ;
635 -> 637 ;
638 [label=<WindGustSpeed &le; 0.14<br/>gini = 0.22<br/>samples = 222<br/>value = [194.0, 28.0]<br/>class = No>, fillcolor="#e99356"] ;
608 -> 638 ;
639 [label=<gini = 0.0<br/>samples = 1<br/>value = [0, 1]<br/>class = Yes>, fillcolor="#399de5"] ;
638 -> 639 ;
640 [label=<WindGustSpeed &le; 0.291<br/>gini = 0.214<br/>samples = 221<br/>value = [194, 27]<br/>class = No>, fillcolor="#e99355"] ;
638 -> 640 ;
641 [label=<Evaporation &le; 0.116<br/>gini = 0.136<br/>samples = 136<br/>value = [126, 10]<br/>class = No>, fillcolor="#e78b49"] ;
640 -> 641 ;
642 [label=<Pressure9am &le; 0.579<br/>gini = 0.125<br/>samples = 134<br/>value = [125, 9]<br/>class = No>, fillcolor="#e78a47"] ;
641 -> 642 ;
643 [label=<Temp3pm &le; 0.757<br/>gini = 0.114<br/>samples = 132<br/>value = [124, 8]<br/>class = No>, fillcolor="#e78946"] ;
642 -> 643 ;
644 [label=<MaxTemp &le; 0.755<br/>gini = 0.102<br/>samples = 130<br/>value = [123, 7]<br/>class = No>, fillcolor="#e68844"] ;
643 -> 644 ;
645 [label=<Pressure3pm &le; 0.497<br/>gini = 0.09<br/>samples = 127<br/>value = [121, 6]<br/>class = No>, fillcolor="#e68743"] ;
644 -> 645 ;
646 [label=<Pressure9am &le; 0.531<br/>gini = 0.202<br/>samples = 35<br/>value = [31, 4]<br/>class = No>, fillcolor="#e89153"] ;
645 -> 646 ;
647 [label=<Location &le; 10.5<br/>gini = 0.161<br/>samples = 34<br/>value = [31, 3]<br/>class = No>, fillcolor="#e88d4c"] ;
646 -> 647 ;
648 [label=<Pressure9am &le; 0.474<br/>gini = 0.48<br/>samples = 5<br/>value = [3, 2]<br/>class = No>, fillcolor="#f6d5bd"] ;
647 -> 648 ;
649 [label=<gini = 0.0<br/>samples = 2<br/>value = [2, 0]<br/>class = No>, fillcolor="#e58139"] ;
648 -> 649 ;
650 [label=<Pressure3pm &le; 0.475<br/>gini = 0.444<br/>samples = 3<br/>value = [1, 2]<br/>class = Yes>, fillcolor="#9ccef2"] ;
648 -> 650 ;
651 [label=<gini = 0.0<br/>samples = 1<br/>value = [1, 0]<br/>class = No>, fillcolor="#e58139"] ;
650 -> 651 ;
652 [label=<gini = 0.0<br/>samples = 2<br/>value = [0, 2]<br/>class = Yes>, fillcolor="#399de5"] ;
650 -> 652 ;
653 [label=<Humidity9am &le; 0.805<br/>gini = 0.067<br/>samples = 29<br/>value = [28, 1]<br/>class = No>, fillcolor="#e68640"] ;
647 -> 653 ;
654 [label=<gini = 0.0<br/>samples = 27<br/>value = [27, 0]<br/>class = No>, fillcolor="#e58139"] ;
653 -> 654 ;
655 [label=<WindGustDir &le; 13.5<br/>gini = 0.5<br/>samples = 2<br/>value = [1, 1]<br/>class = No>, fillcolor="#ffffff"] ;
653 -> 655 ;
656 [label=<gini = 0.0<br/>samples = 1<br/>value = [0, 1]<br/>class = Yes>, fillcolor="#399de5"] ;
655 -> 656 ;
657 [label=<gini = 0.0<br/>samples = 1<br/>value = [1, 0]<br/>class = No>, fillcolor="#e58139"] ;
655 -> 657 ;
658 [label=<gini = 0.0<br/>samples = 1<br/>value = [0, 1]<br/>class = Yes>, fillcolor="#399de5"] ;
646 -> 658 ;
659 [label=<Humidity9am &le; 0.45<br/>gini = 0.043<br/>samples = 92<br/>value = [90, 2]<br/>class = No>, fillcolor="#e6843d"] ;
645 -> 659 ;
660 [label=<Pressure9am &le; 0.469<br/>gini = 0.32<br/>samples = 5<br/>value = [4, 1]<br/>class = No>, fillcolor="#eca06a"] ;
659 -> 660 ;
661 [label=<gini = 0.0<br/>samples = 1<br/>value = [0, 1]<br/>class = Yes>, fillcolor="#399de5"] ;
660 -> 661 ;
662 [label=<gini = 0.0<br/>samples = 4<br/>value = [4, 0]<br/>class = No>, fillcolor="#e58139"] ;
660 -> 662 ;
663 [label=<Location &le; 43.0<br/>gini = 0.023<br/>samples = 87<br/>value = [86, 1]<br/>class = No>, fillcolor="#e5823b"] ;
659 -> 663 ;
664 [label=<gini = 0.0<br/>samples = 81<br/>value = [81, 0]<br/>class = No>, fillcolor="#e58139"] ;
663 -> 664 ;
665 [label=<WindDir3pm &le; 13.5<br/>gini = 0.278<br/>samples = 6<br/>value = [5, 1]<br/>class = No>, fillcolor="#ea9a61"] ;
663 -> 665 ;
666 [label=<gini = 0.0<br/>samples = 5<br/>value = [5, 0]<br/>class = No>, fillcolor="#e58139"] ;
665 -> 666 ;
667 [label=<gini = 0.0<br/>samples = 1<br/>value = [0, 1]<br/>class = Yes>, fillcolor="#399de5"] ;
665 -> 667 ;
668 [label=<Temp9am &le; 0.707<br/>gini = 0.444<br/>samples = 3<br/>value = [2, 1]<br/>class = No>, fillcolor="#f2c09c"] ;
644 -> 668 ;
669 [label=<gini = 0.0<br/>samples = 2<br/>value = [2, 0]<br/>class = No>, fillcolor="#e58139"] ;
668 -> 669 ;
670 [label=<gini = 0.0<br/>samples = 1<br/>value = [0, 1]<br/>class = Yes>, fillcolor="#399de5"] ;
668 -> 670 ;
671 [label=<Evaporation &le; 0.054<br/>gini = 0.5<br/>samples = 2<br/>value = [1, 1]<br/>class = No>, fillcolor="#ffffff"] ;
643 -> 671 ;
672 [label=<gini = 0.0<br/>samples = 1<br/>value = [0, 1]<br/>class = Yes>, fillcolor="#399de5"] ;
671 -> 672 ;
673 [label=<gini = 0.0<br/>samples = 1<br/>value = [1, 0]<br/>class = No>, fillcolor="#e58139"] ;
671 -> 673 ;
674 [label=<Rainfall &le; 0.001<br/>gini = 0.5<br/>samples = 2<br/>value = [1, 1]<br/>class = No>, fillcolor="#ffffff"] ;
642 -> 674 ;
675 [label=<gini = 0.0<br/>samples = 1<br/>value = [1, 0]<br/>class = No>, fillcolor="#e58139"] ;
674 -> 675 ;
676 [label=<gini = 0.0<br/>samples = 1<br/>value = [0, 1]<br/>class = Yes>, fillcolor="#399de5"] ;
674 -> 676 ;
677 [label=<Pressure9am &le; 0.522<br/>gini = 0.5<br/>samples = 2<br/>value = [1, 1]<br/>class = No>, fillcolor="#ffffff"] ;
641 -> 677 ;
678 [label=<gini = 0.0<br/>samples = 1<br/>value = [1, 0]<br/>class = No>, fillcolor="#e58139"] ;
677 -> 678 ;
679 [label=<gini = 0.0<br/>samples = 1<br/>value = [0, 1]<br/>class = Yes>, fillcolor="#399de5"] ;
677 -> 679 ;
680 [label=<WindGustDir &le; 1.0<br/>gini = 0.32<br/>samples = 85<br/>value = [68, 17]<br/>class = No>, fillcolor="#eca06a"] ;
640 -> 680 ;
681 [label=<gini = 0.0<br/>samples = 2<br/>value = [0, 2]<br/>class = Yes>, fillcolor="#399de5"] ;
680 -> 681 ;
682 [label=<WindSpeed9am &le; 0.138<br/>gini = 0.296<br/>samples = 83<br/>value = [68, 15]<br/>class = No>, fillcolor="#eb9d65"] ;
680 -> 682 ;
683 [label=<Evaporation &le; 0.036<br/>gini = 0.428<br/>samples = 29<br/>value = [20, 9]<br/>class = No>, fillcolor="#f1ba92"] ;
682 -> 683 ;
684 [label=<gini = 0.0<br/>samples = 3<br/>value = [0, 3]<br/>class = Yes>, fillcolor="#399de5"] ;
683 -> 684 ;
685 [label=<WindSpeed3pm &le; 0.241<br/>gini = 0.355<br/>samples = 26<br/>value = [20, 6]<br/>class = No>, fillcolor="#eda774"] ;
683 -> 685 ;
686 [label=<WindDir9am &le; 5.5<br/>gini = 0.5<br/>samples = 10<br/>value = [5, 5]<br/>class = No>, fillcolor="#ffffff"] ;
685 -> 686 ;
687 [label=<gini = 0.0<br/>samples = 4<br/>value = [4, 0]<br/>class = No>, fillcolor="#e58139"] ;
686 -> 687 ;
688 [label=<Temp3pm &le; 0.529<br/>gini = 0.278<br/>samples = 6<br/>value = [1, 5]<br/>class = Yes>, fillcolor="#61b1ea"] ;
686 -> 688 ;
689 [label=<gini = 0.0<br/>samples = 1<br/>value = [1, 0]<br/>class = No>, fillcolor="#e58139"] ;
688 -> 689 ;
690 [label=<gini = 0.0<br/>samples = 5<br/>value = [0, 5]<br/>class = Yes>, fillcolor="#399de5"] ;
688 -> 690 ;
691 [label=<WindGustDir &le; 8.5<br/>gini = 0.117<br/>samples = 16<br/>value = [15, 1]<br/>class = No>, fillcolor="#e78946"] ;
685 -> 691 ;
692 [label=<Location &le; 18.5<br/>gini = 0.5<br/>samples = 2<br/>value = [1, 1]<br/>class = No>, fillcolor="#ffffff"] ;
691 -> 692 ;
693 [label=<gini = 0.0<br/>samples = 1<br/>value = [0, 1]<br/>class = Yes>, fillcolor="#399de5"] ;
692 -> 693 ;
694 [label=<gini = 0.0<br/>samples = 1<br/>value = [1, 0]<br/>class = No>, fillcolor="#e58139"] ;
692 -> 694 ;
695 [label=<gini = 0.0<br/>samples = 14<br/>value = [14, 0]<br/>class = No>, fillcolor="#e58139"] ;
691 -> 695 ;
696 [label=<Humidity3pm &le; 0.505<br/>gini = 0.198<br/>samples = 54<br/>value = [48, 6]<br/>class = No>, fillcolor="#e89152"] ;
682 -> 696 ;
697 [label=<RainToday &le; 0.5<br/>gini = 0.057<br/>samples = 34<br/>value = [33, 1]<br/>class = No>, fillcolor="#e6853f"] ;
696 -> 697 ;
698 [label=<gini = 0.0<br/>samples = 31<br/>value = [31, 0]<br/>class = No>, fillcolor="#e58139"] ;
697 -> 698 ;
699 [label=<Evaporation &le; 0.05<br/>gini = 0.444<br/>samples = 3<br/>value = [2, 1]<br/>class = No>, fillcolor="#f2c09c"] ;
697 -> 699 ;
700 [label=<gini = 0.0<br/>samples = 2<br/>value = [2, 0]<br/>class = No>, fillcolor="#e58139"] ;
699 -> 700 ;
701 [label=<gini = 0.0<br/>samples = 1<br/>value = [0, 1]<br/>class = Yes>, fillcolor="#399de5"] ;
699 -> 701 ;
702 [label=<Humidity9am &le; 0.525<br/>gini = 0.375<br/>samples = 20<br/>value = [15, 5]<br/>class = No>, fillcolor="#eeab7b"] ;
696 -> 702 ;
703 [label=<gini = 0.0<br/>samples = 2<br/>value = [0, 2]<br/>class = Yes>, fillcolor="#399de5"] ;
702 -> 703 ;
704 [label=<WindSpeed3pm &le; 0.333<br/>gini = 0.278<br/>samples = 18<br/>value = [15, 3]<br/>class = No>, fillcolor="#ea9a61"] ;
702 -> 704 ;
705 [label=<gini = 0.0<br/>samples = 11<br/>value = [11, 0]<br/>class = No>, fillcolor="#e58139"] ;
704 -> 705 ;
706 [label=<Humidity9am &le; 0.63<br/>gini = 0.49<br/>samples = 7<br/>value = [4, 3]<br/>class = No>, fillcolor="#f8e0ce"] ;
704 -> 706 ;
707 [label=<Pressure3pm &le; 0.494<br/>gini = 0.375<br/>samples = 4<br/>value = [1, 3]<br/>class = Yes>, fillcolor="#7bbeee"] ;
706 -> 707 ;
708 [label=<gini = 0.0<br/>samples = 1<br/>value = [1, 0]<br/>class = No>, fillcolor="#e58139"] ;
707 -> 708 ;
709 [label=<gini = 0.0<br/>samples = 3<br/>value = [0, 3]<br/>class = Yes>, fillcolor="#399de5"] ;
707 -> 709 ;
710 [label=<gini = 0.0<br/>samples = 3<br/>value = [3, 0]<br/>class = No>, fillcolor="#e58139"] ;
706 -> 710 ;
711 [label=<MinTemp &le; 0.638<br/>gini = 0.444<br/>samples = 9<br/>value = [3, 6]<br/>class = Yes>, fillcolor="#9ccef2"] ;
535 -> 711 ;
712 [label=<Humidity3pm &le; 0.555<br/>gini = 0.245<br/>samples = 7<br/>value = [1, 6]<br/>class = Yes>, fillcolor="#5aade9"] ;
711 -> 712 ;
713 [label=<gini = 0.0<br/>samples = 6<br/>value = [0, 6]<br/>class = Yes>, fillcolor="#399de5"] ;
712 -> 713 ;
714 [label=<gini = 0.0<br/>samples = 1<br/>value = [1, 0]<br/>class = No>, fillcolor="#e58139"] ;
712 -> 714 ;
715 [label=<gini = 0.0<br/>samples = 2<br/>value = [2, 0]<br/>class = No>, fillcolor="#e58139"] ;
711 -> 715 ;
716 [label=<WindSpeed9am &le; 0.25<br/>gini = 0.186<br/>samples = 154<br/>value = [138, 16]<br/>class = No>, fillcolor="#e89050"] ;
534 -> 716 ;
717 [label=<MaxTemp &le; 0.676<br/>gini = 0.177<br/>samples = 153<br/>value = [138, 15]<br/>class = No>, fillcolor="#e88f4f"] ;
716 -> 717 ;
718 [label=<WindGustSpeed &le; 0.333<br/>gini = 0.145<br/>samples = 140<br/>value = [129, 11]<br/>class = No>, fillcolor="#e78c4a"] ;
717 -> 718 ;
719 [label=<WindGustDir &le; 14.5<br/>gini = 0.104<br/>samples = 127<br/>value = [120, 7]<br/>class = No>, fillcolor="#e78845"] ;
718 -> 719 ;
720 [label=<WindDir3pm &le; 9.5<br/>gini = 0.07<br/>samples = 110<br/>value = [106, 4]<br/>class = No>, fillcolor="#e68640"] ;
719 -> 720 ;
721 [label=<Cloud3pm &le; 0.833<br/>gini = 0.198<br/>samples = 36<br/>value = [32, 4]<br/>class = No>, fillcolor="#e89152"] ;
720 -> 721 ;
722 [label=<Rainfall &le; 0.002<br/>gini = 0.157<br/>samples = 35<br/>value = [32, 3]<br/>class = No>, fillcolor="#e78d4c"] ;
721 -> 722 ;
723 [label=<Temp9am &le; 0.431<br/>gini = 0.111<br/>samples = 34<br/>value = [32, 2]<br/>class = No>, fillcolor="#e78945"] ;
722 -> 723 ;
724 [label=<Temp3pm &le; 0.439<br/>gini = 0.5<br/>samples = 2<br/>value = [1, 1]<br/>class = No>, fillcolor="#ffffff"] ;
723 -> 724 ;
725 [label=<gini = 0.0<br/>samples = 1<br/>value = [1, 0]<br/>class = No>, fillcolor="#e58139"] ;
724 -> 725 ;
726 [label=<gini = 0.0<br/>samples = 1<br/>value = [0, 1]<br/>class = Yes>, fillcolor="#399de5"] ;
724 -> 726 ;
727 [label=<Humidity9am &le; 0.495<br/>gini = 0.061<br/>samples = 32<br/>value = [31, 1]<br/>class = No>, fillcolor="#e6853f"] ;
723 -> 727 ;
728 [label=<Cloud3pm &le; 0.639<br/>gini = 0.444<br/>samples = 3<br/>value = [2, 1]<br/>class = No>, fillcolor="#f2c09c"] ;
727 -> 728 ;
729 [label=<gini = 0.0<br/>samples = 1<br/>value = [0, 1]<br/>class = Yes>, fillcolor="#399de5"] ;
728 -> 729 ;
730 [label=<gini = 0.0<br/>samples = 2<br/>value = [2, 0]<br/>class = No>, fillcolor="#e58139"] ;
728 -> 730 ;
731 [label=<gini = 0.0<br/>samples = 29<br/>value = [29, 0]<br/>class = No>, fillcolor="#e58139"] ;
727 -> 731 ;
732 [label=<gini = 0.0<br/>samples = 1<br/>value = [0, 1]<br/>class = Yes>, fillcolor="#399de5"] ;
722 -> 732 ;
733 [label=<gini = 0.0<br/>samples = 1<br/>value = [0, 1]<br/>class = Yes>, fillcolor="#399de5"] ;
721 -> 733 ;
734 [label=<gini = 0.0<br/>samples = 74<br/>value = [74, 0]<br/>class = No>, fillcolor="#e58139"] ;
720 -> 734 ;
735 [label=<WindSpeed3pm &le; 0.207<br/>gini = 0.291<br/>samples = 17<br/>value = [14, 3]<br/>class = No>, fillcolor="#eb9c63"] ;
719 -> 735 ;
736 [label=<MaxTemp &le; 0.471<br/>gini = 0.5<br/>samples = 6<br/>value = [3, 3]<br/>class = No>, fillcolor="#ffffff"] ;
735 -> 736 ;
737 [label=<gini = 0.0<br/>samples = 3<br/>value = [0, 3]<br/>class = Yes>, fillcolor="#399de5"] ;
736 -> 737 ;
738 [label=<gini = 0.0<br/>samples = 3<br/>value = [3, 0]<br/>class = No>, fillcolor="#e58139"] ;
736 -> 738 ;
739 [label=<gini = 0.0<br/>samples = 11<br/>value = [11, 0]<br/>class = No>, fillcolor="#e58139"] ;
735 -> 739 ;
740 [label=<Location &le; 25.0<br/>gini = 0.426<br/>samples = 13<br/>value = [9, 4]<br/>class = No>, fillcolor="#f1b991"] ;
718 -> 740 ;
741 [label=<Temp9am &le; 0.379<br/>gini = 0.444<br/>samples = 6<br/>value = [2, 4]<br/>class = Yes>, fillcolor="#9ccef2"] ;
740 -> 741 ;
742 [label=<gini = 0.0<br/>samples = 2<br/>value = [2, 0]<br/>class = No>, fillcolor="#e58139"] ;
741 -> 742 ;
743 [label=<gini = 0.0<br/>samples = 4<br/>value = [0, 4]<br/>class = Yes>, fillcolor="#399de5"] ;
741 -> 743 ;
744 [label=<gini = 0.0<br/>samples = 7<br/>value = [7, 0]<br/>class = No>, fillcolor="#e58139"] ;
740 -> 744 ;
745 [label=<WindGustDir &le; 9.0<br/>gini = 0.426<br/>samples = 13<br/>value = [9, 4]<br/>class = No>, fillcolor="#f1b991"] ;
717 -> 745 ;
746 [label=<Temp3pm &le; 0.713<br/>gini = 0.32<br/>samples = 5<br/>value = [1, 4]<br/>class = Yes>, fillcolor="#6ab6ec"] ;
745 -> 746 ;
747 [label=<gini = 0.0<br/>samples = 4<br/>value = [0, 4]<br/>class = Yes>, fillcolor="#399de5"] ;
746 -> 747 ;
748 [label=<gini = 0.0<br/>samples = 1<br/>value = [1, 0]<br/>class = No>, fillcolor="#e58139"] ;
746 -> 748 ;
749 [label=<gini = 0.0<br/>samples = 8<br/>value = [8, 0]<br/>class = No>, fillcolor="#e58139"] ;
745 -> 749 ;
750 [label=<gini = 0.0<br/>samples = 1<br/>value = [0, 1]<br/>class = Yes>, fillcolor="#399de5"] ;
716 -> 750 ;
751 [label=<MaxTemp &le; 0.534<br/>gini = 0.462<br/>samples = 1088<br/>value = [693, 395]<br/>class = No>, fillcolor="#f4c9aa"] ;
275 -> 751 ;
752 [label=<WindSpeed3pm &le; 0.241<br/>gini = 0.493<br/>samples = 455<br/>value = [254, 201]<br/>class = No>, fillcolor="#fae5d6"] ;
751 -> 752 ;
753 [label=<Temp9am &le; 0.332<br/>gini = 0.472<br/>samples = 304<br/>value = [188, 116]<br/>class = No>, fillcolor="#f5cfb3"] ;
752 -> 753 ;
754 [label=<Temp3pm &le; 0.274<br/>gini = 0.245<br/>samples = 49<br/>value = [42, 7]<br/>class = No>, fillcolor="#e9965a"] ;
753 -> 754 ;
755 [label=<gini = 0.0<br/>samples = 3<br/>value = [0, 3]<br/>class = Yes>, fillcolor="#399de5"] ;
754 -> 755 ;
756 [label=<WindGustDir &le; 2.5<br/>gini = 0.159<br/>samples = 46<br/>value = [42, 4]<br/>class = No>, fillcolor="#e78d4c"] ;
754 -> 756 ;
757 [label=<Sunshine &le; 0.155<br/>gini = 0.444<br/>samples = 3<br/>value = [1, 2]<br/>class = Yes>, fillcolor="#9ccef2"] ;
756 -> 757 ;
758 [label=<gini = 0.0<br/>samples = 1<br/>value = [1, 0]<br/>class = No>, fillcolor="#e58139"] ;
757 -> 758 ;
759 [label=<gini = 0.0<br/>samples = 2<br/>value = [0, 2]<br/>class = Yes>, fillcolor="#399de5"] ;
757 -> 759 ;
760 [label=<Sunshine &le; 0.462<br/>gini = 0.089<br/>samples = 43<br/>value = [41, 2]<br/>class = No>, fillcolor="#e68743"] ;
756 -> 760 ;
761 [label=<WindDir9am &le; 1.5<br/>gini = 0.046<br/>samples = 42<br/>value = [41, 1]<br/>class = No>, fillcolor="#e6843e"] ;
760 -> 761 ;
762 [label=<MinTemp &le; 0.291<br/>gini = 0.375<br/>samples = 4<br/>value = [3, 1]<br/>class = No>, fillcolor="#eeab7b"] ;
761 -> 762 ;
763 [label=<gini = 0.0<br/>samples = 1<br/>value = [0, 1]<br/>class = Yes>, fillcolor="#399de5"] ;
762 -> 763 ;
764 [label=<gini = 0.0<br/>samples = 3<br/>value = [3, 0]<br/>class = No>, fillcolor="#e58139"] ;
762 -> 764 ;
765 [label=<gini = 0.0<br/>samples = 38<br/>value = [38, 0]<br/>class = No>, fillcolor="#e58139"] ;
761 -> 765 ;
766 [label=<gini = 0.0<br/>samples = 1<br/>value = [0, 1]<br/>class = Yes>, fillcolor="#399de5"] ;
760 -> 766 ;
767 [label=<WindSpeed9am &le; 0.077<br/>gini = 0.489<br/>samples = 255<br/>value = [146, 109]<br/>class = No>, fillcolor="#f8dfcd"] ;
753 -> 767 ;
768 [label=<Evaporation &le; 0.016<br/>gini = 0.496<br/>samples = 116<br/>value = [53, 63]<br/>class = Yes>, fillcolor="#e0effb"] ;
767 -> 768 ;
769 [label=<Location &le; 34.0<br/>gini = 0.387<br/>samples = 42<br/>value = [11, 31]<br/>class = Yes>, fillcolor="#7fc0ee"] ;
768 -> 769 ;
770 [label=<WindGustSpeed &le; 0.124<br/>gini = 0.191<br/>samples = 28<br/>value = [3, 25]<br/>class = Yes>, fillcolor="#51a9e8"] ;
769 -> 770 ;
771 [label=<Cloud9am &le; 0.444<br/>gini = 0.444<br/>samples = 3<br/>value = [2, 1]<br/>class = No>, fillcolor="#f2c09c"] ;
770 -> 771 ;
772 [label=<gini = 0.0<br/>samples = 1<br/>value = [0, 1]<br/>class = Yes>, fillcolor="#399de5"] ;
771 -> 772 ;
773 [label=<gini = 0.0<br/>samples = 2<br/>value = [2, 0]<br/>class = No>, fillcolor="#e58139"] ;
771 -> 773 ;
774 [label=<MinTemp &le; 0.521<br/>gini = 0.077<br/>samples = 25<br/>value = [1, 24]<br/>class = Yes>, fillcolor="#41a1e6"] ;
770 -> 774 ;
775 [label=<gini = 0.0<br/>samples = 22<br/>value = [0, 22]<br/>class = Yes>, fillcolor="#399de5"] ;
774 -> 775 ;
776 [label=<WindGustSpeed &le; 0.26<br/>gini = 0.444<br/>samples = 3<br/>value = [1, 2]<br/>class = Yes>, fillcolor="#9ccef2"] ;
774 -> 776 ;
777 [label=<gini = 0.0<br/>samples = 2<br/>value = [0, 2]<br/>class = Yes>, fillcolor="#399de5"] ;
776 -> 777 ;
778 [label=<gini = 0.0<br/>samples = 1<br/>value = [1, 0]<br/>class = No>, fillcolor="#e58139"] ;
776 -> 778 ;
779 [label=<Evaporation &le; 0.013<br/>gini = 0.49<br/>samples = 14<br/>value = [8, 6]<br/>class = No>, fillcolor="#f8e0ce"] ;
769 -> 779 ;
